1344 100
AAA -0.10154414 -0.16126151 -0.3254958 0.034053143 -0.19152053 0.2657601 0.550447 -0.16961618 0.58640605 0.24001926 -0.07848741 0.2500466 -0.07007712 0.06443949 0.074598715 -0.14180158 -0.21319926 0.10131903 -0.023289453 0.16246672 0.057124373 -0.18998273 -0.075489074 -0.11819336 -0.25767508 -0.120944396 0.13652666 0.17416815 -0.09487879 -0.027611358 -0.051765647 0.42787698 -0.033295207 0.46163115 -0.18022186 0.046098232 -0.021606652 -0.042052925 -0.005957583 0.00038585917 0.057536036 0.24384221 -0.24128488 -0.1007328 -0.3432749 -0.1619454 -0.42391077 -0.10483449 -0.20792902 0.2237142 -0.062954724 -0.15818016 0.28667194 -0.58637637 0.15304102 0.1281199 -0.10491078 0.011856785 -0.2934179 0.023028454 -0.1098719 -0.09683188 0.36713368 -0.1282049 -0.21451685 0.31468847 -0.21482898 0.036402605 -0.102729 -0.20728256 -0.07591462 -0.2629602 -0.114275694 0.5329038 0.079613775 0.03191043 0.010371656 -0.51189536 -0.24833934 -0.08311214 0.04164652 0.46518964 -0.18138373 -0.22273695 -0.15347597 0.13229382 -0.3545018 -0.04641799 0.0018783982 0.26630712 -0.50146943 0.05603761 0.1244915 0.39138934 -0.47886482 0.16466023 0.016633105 -0.30519053 0.016647333 0.05677047
TTT 0.007069605 0.042536624 0.5405317 0.40931737 -0.014131447 0.6488038 0.15712357 -0.005821652 -0.089957476 -0.060749337 -0.33610126 -0.12290758 0.0056068753 0.25226715 -0.45116332 0.44075048 -0.11632745 0.16559726 0.088821836 -0.2790878 0.1922277 0.25071672 0.20586228 -0.09197046 -0.3154583 0.36330593 0.39932993 -0.21776474 0.040353794 -0.053904925 0.030185495 0.15832143 0.010598469 0.2141295 -0.120783 0.1327438 -0.2594542 -0.09924755 0.1791581 -0.3619572 -0.26068157 0.16186352 -0.25825074 0.2796319 0.29760063 -0.0786552 -0.07092982 -0.26393 -0.22077256 -0.07379204 0.042304788 0.012616326 0.31639946 -0.15806845 0.14484945 0.12090027 0.103122056 -0.12247856 -0.41882777 -0.26508778 -0.21047953 -0.29630622 -0.16915491 0.09904379 -0.111260705 0.09480483 -0.2132221 -0.26583531 0.17730695 0.11053162 -0.077998534 -0.42553908 -0.09002007 0.04196708 -0.14363581 0.09163696 0.06609758 0.19510877 -0.0018755526 0.22624499 0.2901974 0.52866375 -0.39542016 0.32456738 0.18088377 0.3360301 -0.31021482 0.23852997 -0.11782421 -0.35268492 0.2058266 0.36420733 0.10225768 -0.048062954 0.09182502 -0.14863367 0.23715758 -0.1696081 0.11702688 0.14386846
AAT -0.21761975 -0.34774464 0.37884519 0.1388283 0.019789804 0.23623605 0.3403078 -0.09069456 0.48611227 -0.21217555 0.11761298 -0.1420477 0.3470409 -0.10634287 -0.50837445 -0.06067752 -0.04269147 0.22553948 -0.46095148 0.24810085 0.12130547 0.019383743 0.09557827 0.29582104 -0.199116 -0.099156015 0.42769262 0.26331913 -0.2110368 -0.349643 -0.33482248 0.2726159 -0.1559375 0.3982417 0.27265567 0.29254696 0.053999938 0.028528541 0.037834372 -0.18373236 0.258113 -0.5023028 -0.00523465 -0.19092609 -0.5170346 -0.2723573 -0.26080975 -0.19199172 -0.42857513 -0.14803071 -0.31103253 -0.067297824 0.061901644 -0.14949463 -0.14710854 -0.3241799 -0.18774779 0.37686738 -0.1562299 -0.019406522 0.31286654 -0.43495876 -0.0044082957 0.02544653 -0.5015459 0.062249355 -0.28238958 -0.10220251 0.11895007 0.07708652 -0.4268586 0.095512174 0.05964442 0.63969976 0.030756123 -0.3322356 -0.029986776 0.031301692 0.1878178 -0.020341089 0.099599846 -0.101943545 -0.18950705 0.47308952 0.09559093 0.36630353 -0.18386784 0.2742838 -0.07442236 -0.2848444 -0.15877567 0.13864684 0.21432869 0.0077749654 -0.600918 -0.14189917 0.43131173 -0.27760944 0.033610277 0.183469
ATT 0.08917467 -0.026669525 -0.2167225 0.23097035 0.14059548 0.43830875 0.5623036 0.0008027882 -0.18955058 0.26595175 -0.19426943 -0.39115405 0.2545646 0.099728 -0.38769704 0.5207416 0.051978823 -0.060875382 0.10057209 0.23498026 0.027984563 0.06686104 0.32443592 -0.09066497 -0.34620738 0.20520774 0.35679153 -0.20907162 -0.03359216 0.09102884 0.06603231 0.31403953 -0.10633518 0.52092445 0.51246476 -0.013015813 -0.3566392 0.13767417 -0.027593741 -0.09625536 -0.33750823 -0.4774052 0.22538759 0.19618769 -0.16036043 -0.03481249 0.007813037 0.07825738 -0.5522277 0.060798597 -0.08622185 0.020705685 0.40226638 -0.11799596 -0.14615156 0.75248015 0.018528102 -0.32846612 0.057506233 0.0099281985 0.15092137 -0.044915292 -0.30325702 0.25962746 -0.06089353 0.07531307 -0.42614207 -0.18679671 0.24634607 -0.282347 0.36623687 -0.31812337 0.031525336 0.25863382 -0.07523445 0.10774736 -0.19055632 0.16393101 -0.1752254 0.09711465 0.410566 -0.16005982 -0.5082135 0.1015462 0.027396599 0.25114995 -0.5204741 0.041206587 -0.10659639 -0.33004257 -0.13879293 0.42258692 0.5115618 0.1130645 -0.14619438 -0.35478196 -0.20038907 0.2607625 -0.29434165 0.24319077
TCT 0.1469511 -0.023910973 0.5031001 0.062094253 0.25457534 0.34937486 0.21435402 0.15514511 0.017421436 -0.0043062055 -0.13160034 -0.060352333 0.0822996 0.06626259 0.00060104125 0.4290428 0.32141894 0.16115303 -0.3943776 0.12880848 0.4834398 -0.09636367 0.18907869 -0.28565177 -0.12681341 0.02609722 0.47277448 0.07665196 0.028521487 0.036441073 -0.011027724 0.05380665 0.40487385 0.39820606 -0.26480344 0.18381041 0.030691482 -0.30503592 0.30117452 -0.25942045 0.014463767 -0.21667136 0.13354619 0.2676098 0.038983945 0.18535674 -0.33984637 -0.3639646 -0.052399144 0.3494629 0.17782502 0.29185495 0.23688139 0.24774656 -0.44715008 0.11967016 -0.04209363 0.057553027 -0.4130642 -0.2471436 -0.318386 0.19381468 -0.2643003 -0.17145877 -0.06241345 -0.13458543 -0.17976484 -0.39673874 -0.16986196 0.36740398 -0.073939666 -0.09134858 -0.05096406 0.1559721 -0.04150086 -0.36986032 0.08449177 -0.097097315 0.230521 -0.2608578 0.3058328 0.15105839 -0.0031883395 -0.07278834 0.15837221 -0.00075264304 -0.47947076 0.16470215 -0.45959592 0.09980234 0.55886316 0.44712338 0.14533003 0.53392375 -0.15593588 0.23048049 -0.25250575 0.5753737 0.15977895 0.08368664
AGA -0.25817525 0.32262364 -0.27011493 0.17365731 0.25802833 0.03125688 0.36142838 0.21776308 0.27218163 0.05113294 0.151589 -0.2081963 -0.01186507 0.033637688 -0.079122245 -0.6987936 0.14671925 -0.09768429 0.20012717 0.1437841 -0.021013064 0.3811973 0.05667305 0.39787602 -0.36763227 0.091763265 -0.1218831 -0.6909414 -0.19745539 -0.084391505 0.004028452 0.24774109 0.22767943 0.40914482 -0.18388148 0.09246501 -0.3006947 -0.11798719 -0.2069804 -0.293785 0.24642974 0.16256748 -0.20870328 0.12467953 0.043933336 0.06329741 -0.8721943 0.07263862 -0.2458807 -0.12113799 -0.0057952073 0.02537349 0.057287652 -0.23725754 0.08810656 -0.21052034 -0.15297142 -0.24555328 -0.1771701 -0.20169505 0.50200117 0.031796675 0.2761982 -0.2704896 -0.18867028 0.052794304 -0.40534782 0.28386715 -0.39968747 -0.0951801 -0.09651926 -0.23809245 -0.26835474 0.7283195 0.20520976 0.014714304 0.14371747 0.20279755 0.067331225 -0.10864848 -0.28049228 0.06550065 -0.22861275 -0.25707012 0.14792134 0.44955862 -0.07234045 -0.33972296 0.33833292 0.06649943 -0.013501799 0.1063109 -0.06870254 0.31786868 -0.04308137 0.019886758 -0.015093098 0.14587107 -0.06614988 -0.05334666
CAG -0.092214495 0.39635217 -0.3392579 0.22241156 0.41036475 -0.5053421 -0.14512812 0.13054775 -0.01148621 0.013406799 -0.13923982 -0.04514412 -0.060588595 -0.10403725 0.09024803 -0.20409787 0.11637762 -0.3542883 -0.64055467 0.34430605 0.28322992 -0.43432543 -0.024533605 0.19625387 -0.09124681 -0.3400088 0.35104957 -0.42124453 0.09150804 0.105806686 -0.12553826 0.116909266 0.020457765 -0.09676111 -0.14477932 0.31825197 -0.09835752 0.36650094 -0.016994605 0.010771451 -0.7177323 0.32968253 -0.3701145 0.057418544 0.06739287 -0.41746065 -0.49939013 -0.2673052 -0.17294069 -0.12461858 -0.17863822 -0.08485043 0.34357116 -0.043970417 0.13725579 -0.07502468 0.07494465 0.02302445 -0.068425044 -0.39351004 -0.42367104 -0.47647128 -0.4492075 0.13559338 0.24938202 -0.3988466 -0.17242122 0.38631868 -0.4462329 -0.2314181 -0.091228016 -0.02651267 -0.04505099 0.38326403 -0.07047498 -0.18922499 -0.19532612 -0.46344942 -0.029197782 0.4859156 0.21181461 0.03236317 0.39162964 -0.37913737 0.2903909 0.22498904 -0.5311776 -0.17718862 -0.17061011 -0.17219792 -0.12209261 -0.23579735 0.32148317 0.18467541 0.03900558 -0.6162467 0.3520088 0.24951951 -0.19495295 -0.4942011
CTG -0.078805394 0.09477881 0.34170333 0.42073026 0.36976847 0.034289476 -0.31706125 0.15620963 0.303333 -0.2342468 0.14757635 -0.21681409 0.047613587 -0.30403852 0.15009512 -0.38244075 0.15936448 0.337637 -0.30203196 0.50771904 0.03481177 0.0067494684 0.12507965 0.41257924 -0.12230542 0.010534902 0.21341056 0.2968104 0.1539538 0.0031801728 0.70532846 0.3090517 0.017659133 -0.09417163 0.43622375 0.015178027 -0.50678134 -0.10925447 0.024832329 -0.29696828 -0.33027416 0.11234074 -0.1217317 -0.5151094 0.16484573 -0.121373795 0.15380876 0.09977182 -0.44552624 0.3900616 0.40863025 0.13642685 -0.049809504 0.21935919 0.06746067 -0.0010143634 0.43919 0.122176215 -0.117566355 -0.09167348 -0.7160493 -0.5062932 0.3012862 -0.1072672 0.255354 -0.1986431 0.020444727 0.026847305 -0.04809906 -0.32079303 0.041487467 -0.38420606 0.10861128 0.30038854 0.1644317 -0.24480002 -0.35481298 0.23691079 0.12338509 -0.455333 0.19468296 0.35302114 -0.19105117 -0.025333803 -0.23170047 0.017174218 -0.6229963 -0.5166329 -0.32300046 -0.06840968 0.24840572 -0.028838042 -0.041743793 0.40733528 -0.042579245 -0.38904968 -0.07620935 -0.104167484 0.51732296 -0.41231126
CTT 0.23132202 0.24811098 0.024732377 0.35431367 -0.2822223 0.22973482 0.0054716473 0.12315621 -0.013449897 -0.16966686 0.13158041 0.07045637 0.13624772 -0.1163534 -0.32107964 0.10223506 -0.30244496 0.03429952 -0.33862013 -0.104324326 -0.008847853 0.226945 -0.10958895 0.3680445 -0.37402192 0.14822808 0.33196807 -0.17470044 0.31027108 0.36574325 -0.023883013 0.06354257 0.02011568 0.17025585 -0.08904064 0.08487351 -0.09711965 -0.37636715 0.15206788 -0.6203762 -0.4469516 0.004565864 0.1422127 -0.029509904 0.06351564 -0.13198344 -0.2878767 -0.1757191 -0.53249687 0.08373799 0.09191243 0.33278748 0.29205346 0.18509585 -0.34695667 0.33041027 0.023600774 -0.1183489 -0.008292647 -0.14823785 -0.12958246 -0.18403497 0.46443042 0.19540395 -0.014290055 0.20959547 0.089890786 -0.5091984 0.21835369 -0.27174944 0.0008054227 -0.3744639 -0.028526738 0.13271789 -0.053187534 -0.11768371 0.3653375 0.17627926 -0.3931528 0.17236234 -0.08483467 0.33382827 0.079571895 0.91505426 0.2697345 0.3784771 -0.30769867 0.0029347767 -0.91247785 0.019934688 0.07829102 0.13183132 0.004576442 0.08703516 -0.5449243 -0.6007864 -0.20753911 0.2086508 0.08631158 0.167235
AAG 0.30742803 -0.19866788 -0.071023315 -0.106860235 0.0899071 -0.088076584 -0.08007103 -0.087877624 0.008358154 0.12684894 -0.15287639 0.390426 0.010453668 -0.024602927 -0.68034256 -0.59355456 -0.026820522 0.35466647 -0.3234173 -0.17590067 0.5214314 -0.16680138 0.29661897 0.12547067 -0.3905987 -0.34087062 0.1846752 -0.34231883 -0.20314674 -0.19456318 0.030907793 0.16507143 0.091147065 0.5707965 -0.04868955 -0.14247559 0.2624283 0.1881486 -0.04587887 -0.09311726 -0.24712753 0.45070252 -0.48455387 0.12305415 0.08918893 -0.025351979 -0.14814022 -0.22440311 -0.10714014 -0.032849092 0.3542369 -0.36107308 -0.09379891 -0.12600553 -0.016187722 0.19881572 -0.4752513 -0.028794987 -0.51611614 0.08731835 0.19993934 -0.29935813 -0.03864046 0.20584457 0.3449294 0.0032747588 0.01672423 0.5990994 0.040701985 -0.14915846 -0.20117387 0.10062826 -0.39291942 0.19642586 0.3270449 -0.46522307 -0.43379524 -0.16238117 -0.21643399 -0.03086744 0.37470248 -0.0064555285 -0.03761147 -0.66674393 0.3014955 0.3173364 -0.6131451 -0.35027462 -0.21991405 0.015386183 -0.28260916 -0.08931553 0.0533469 0.34989858 -0.20252082 -0.23915377 0.14484239 -0.014952059 0.048929196 -0.23828825
TAA -0.1876444 0.2833105 -0.23701173 0.33007076 0.09643417 0.010797168 0.26630467 -0.25354183 0.49190238 -0.010752117 0.16300252 -0.13915883 0.16434532 -0.027708108 -0.20591363 0.27457598 0.48259705 0.27258772 -0.23154122 -0.014788222 0.1630655 0.08369814 -0.07840621 -0.04107641 -0.28261518 0.01767206 -0.065348014 -0.06000518 -0.026103424 0.2822434 -0.16530266 0.46621794 -0.24518952 0.47658777 -0.50673395 -0.24785443 0.18518004 0.09414349 -0.34850916 -0.061820634 -0.29070133 0.49156296 -0.39960214 0.09741446 -0.16696791 -0.22699374 -0.47472513 -0.171877 -0.07957833 0.21840633 -0.22792646 -0.31702846 -0.1891563 -0.16678509 -0.11634483 0.14017954 -0.1699433 0.040105782 -0.18046305 -0.053341214 -0.3646952 0.071663015 0.8809473 0.12661502 -0.18008311 -0.37218693 -0.5726282 -0.12485632 0.006219586 0.14701696 0.105015166 -0.39124414 0.32436445 0.35246634 -0.13616714 0.22801945 -0.15607421 -0.4319163 -0.39304352 -0.25040266 0.05089183 -0.15968578 -0.6908234 -0.36153904 0.14426489 -0.050582554 -0.15349363 0.50958854 0.0013150974 -0.10800987 -0.18145181 0.31558222 -0.38757864 0.060959324 -0.0850302 0.115554236 -0.0027374148 -0.25607085 0.43343475 -0.0065284674
TTA -0.5744778 0.35425738 -0.14226069 0.088855945 -0.07769253 0.6441475 0.0016422309 -0.050708048 -0.116109155 0.11080725 -0.077477895 0.3522803 0.25951317 0.3895357 -0.23421484 0.095483854 -0.13849764 0.26311857 -0.49815702 0.6025381 0.39080682 -0.09909894 -0.46022078 -0.309458 -0.47240263 0.36101562 -0.010934097 0.1826817 -0.25953484 -0.364005 -0.24634038 0.112623826 -0.31077594 0.27700886 0.03835582 -0.1603942 -0.12279471 -0.04734619 0.511929 -0.46442086 -0.27603814 0.3355985 -0.010320687 -0.039605435 0.38864294 -0.23594218 -0.211912 -0.2715361 -0.18716747 0.26982135 -0.31587952 0.113542885 -0.065510824 -0.38769192 -0.12641704 0.3835076 0.13652268 0.09579446 -0.21701078 -0.18952121 0.19969942 -0.34862593 0.1337578 -0.2915174 -0.08458104 0.30133522 -0.3014325 -0.24194 0.099308275 -0.16102773 -0.03328093 0.004213283 -0.03114759 0.09069637 -0.10090032 -0.3775994 -0.07079776 -0.10709768 -0.23995712 0.50970465 -0.09801174 0.013367512 -0.421942 -0.48017547 0.3466962 0.28868097 0.4291777 0.13252817 0.059832558 0.1738408 0.113059364 0.52778435 -0.21794972 0.1266724 0.024490878 0.01590539 0.20230776 -0.056052107 0.1641455 -0.20385022
ACA -0.6134687 -0.24726595 -0.11919527 -0.16957065 -0.10548834 0.24415694 0.22894989 0.25317866 0.22135526 0.22833811 -0.17645288 0.13929687 -0.1296156 0.24790247 -0.102514535 -0.34767842 0.10379559 0.09608713 -0.109091565 -0.08896215 0.25787982 -0.13577238 -0.012528493 0.21539178 -0.19147353 -0.061961252 0.026057893 0.15806629 -0.2996298 -0.12825076 0.31962207 0.30617237 -0.2502711 0.44274563 0.22655216 -0.23146053 -0.30284593 0.25968483 -0.2501338 0.33027595 -0.19929601 -0.2921024 -0.27950412 0.12735301 0.44191837 -0.5207693 -0.7533971 -0.15452155 -0.042870622 -0.033029363 -0.14874877 0.38625303 -0.12501301 -0.15799755 0.2908259 -0.07834334 0.21464083 0.06103687 -0.017474432 0.25489527 -0.10329225 0.14803997 0.31533855 -0.20687021 -0.005241854 -0.045038763 -0.008056096 -0.07313438 0.027323676 0.25721866 -0.016365597 0.28474662 -0.028486721 0.14436936 0.28421807 0.35295236 0.19611107 -0.20645076 -0.5672602 0.33500284 0.15546153 -0.014391261 -0.16291851 -0.09354737 0.27376392 0.17365952 -0.36207786 0.22029223 0.100281596 -0.44219267 -0.18771072 -0.34582692 0.046829283 0.85652584 -0.34496203 -0.10061686 -0.13575608 0.13387012 0.2441289 0.13511872
TGT -0.60711175 0.03365801 0.5933726 0.49426243 0.2680438 0.5589222 -0.26157746 0.018888058 -0.22996798 0.52687776 0.10340642 0.04507724 0.289366 -0.1907452 -0.58857554 0.116463326 0.014474323 -0.17220698 -0.0027305458 -0.08648483 0.11297509 -0.1345831 -0.37141582 0.28327793 -0.3893848 -0.060745213 0.23048098 0.2676743 0.5963116 0.30905128 -0.19444579 0.13850538 -0.024742693 0.22765502 -0.086299255 0.018561585 -0.20936735 -0.070716254 0.07697519 0.020275516 -0.41458896 0.021712234 -0.14263211 -0.26501575 -0.062351253 -0.08477401 -0.2086995 -0.38958088 -0.2061591 0.39219016 0.18753278 0.33625382 -0.0076813884 0.14945452 -0.20186973 -0.24673939 0.13369049 -0.055372834 -0.3556441 0.055419773 -0.24451359 -0.20237932 -0.3294142 0.3960209 0.052494623 0.25506452 -0.38274714 0.0066034077 0.09038176 0.1794803 -0.122414954 -0.1601654 -0.037139792 0.3759346 0.2613584 -0.043477822 0.1493467 0.07488278 0.2702033 -0.21715952 0.19483791 0.14549893 -0.46654984 0.016193006 0.3907624 -0.047946505 -0.276962 -0.023952935 -0.37134907 -0.26143038 -0.33554745 -0.043996625 -0.16000755 0.046278834 0.43787643 0.17628099 -0.0883431 0.010953837 -0.43732905 0.5054431
GAA -0.16073857 0.31962472 -0.12536396 0.23447001 0.2536262 -0.058176428 0.15728773 0.20758107 0.3651285 -0.024613721 0.31606105 -0.009301194 0.00093795673 0.2693585 0.044656496 -0.06520263 0.09022723 0.2453569 -0.0861966 0.45125437 -0.16890286 -0.0363987 0.59341633 0.26240045 -0.3412119 0.38126528 -0.019037563 -0.24386269 0.5357751 -0.30046722 -0.2720597 0.46342227 -0.21151222 0.2700114 -0.21257034 -0.0028236827 0.18557198 0.3031288 0.009805487 -0.08993946 0.11252734 0.0883338 -0.14742014 0.06371559 -0.35994858 -0.64423996 -0.28896338 -0.1506967 -0.19505268 0.6094361 0.20713624 -0.10251354 0.25351673 -0.057558395 0.1555188 -0.048328646 -0.08912488 -0.35135466 -0.36088893 0.36577347 0.033359747 -0.057956118 0.38246232 -0.17920291 -0.38905326 0.1956118 0.005348334 0.04184578 -0.39531228 -0.04829296 -0.2290203 0.208555 -0.019563098 0.32456625 0.2019035 -0.058468543 0.03094487 -0.54500425 -0.71428126 0.116075374 -0.14810798 0.5183703 -0.5782831 -0.28275102 -0.2904657 -0.07659452 -0.17402714 0.41027957 0.10782296 0.27121934 -0.010509462 -0.036146536 0.14821126 0.07034798 0.097603776 0.10360766 0.08926144 0.3617939 0.035547893 0.0746799
TTC -0.1786582 0.25377014 0.5016944 -0.050728593 0.26538005 0.16562669 0.27615649 0.251373 0.37205568 -0.07924548 -0.34815258 -0.30626836 0.5776278 0.6400637 -0.4073668 0.022538882 0.14501947 -0.4335301 -0.1654054 -0.12573662 0.2662691 -0.16866192 0.009156689 -0.26763475 -0.55418235 -0.18829927 0.12623754 -0.5769176 0.28137946 -0.025621036 0.034620438 0.6116416 -0.18723719 -0.029899728 0.053016078 -0.062310547 -0.38229215 -0.7580285 0.35867327 -0.1186633 0.14392588 0.2817399 0.33871803 0.051669065 0.14895904 -0.2188035 0.095691405 -0.20137168 0.09497416 -0.38260993 0.31231186 0.39604303 0.7068516 -0.14066271 -0.289149 0.04166945 -0.026975438 0.11834347 -0.06812855 0.061372742 -0.026923364 -0.03451074 -0.24797083 -0.06593024 -0.13948682 0.25653479 0.28769448 -0.14465828 -0.06044784 0.19042023 -0.060529284 -0.17495242 0.29404178 0.06827232 -0.028861808 0.20698111 0.04543514 -0.02812825 -0.36936152 -0.19022006 0.4561474 -0.16766264 0.040111482 -0.07490594 0.030484665 0.15699802 -0.21959062 0.1646179 -0.2693155 -0.35759598 -0.25380442 0.3959508 -0.4033994 0.17254557 0.15714654 0.07654539 0.4225468 -0.0059231236 0.35773355 -0.26760525
TCA -0.16912493 0.1431398 0.026110353 -0.031487357 0.028219603 0.17516859 0.36126217 -0.072510086 0.2555725 -0.040166784 0.10575772 0.11737845 0.5316469 -0.05929929 -0.10555729 -0.12608999 0.39678952 0.46365997 -0.4117466 0.007398369 -0.14037354 0.17298046 -0.10546405 -0.3841208 -0.09011821 -0.3248815 0.290767 0.009912725 0.17927052 0.14417033 -0.20847195 -0.31872413 -0.64300007 0.6223042 -0.10211868 0.18841709 -0.1122613 0.4219912 0.014744598 -0.17426403 -0.09708893 0.055701327 -0.09259507 -0.2776409 0.51392746 0.15931104 -0.6950567 0.1387078 -0.3478763 -0.08388355 -0.013443339 0.19766708 0.2686657 -0.086312965 -0.40527022 0.14608426 0.43962374 -0.053749576 -0.21352315 -0.0012582137 -0.43184063 0.024817582 -0.061897688 -0.62374926 0.06473734 0.5924211 0.13227834 -0.063423924 0.011217525 0.3025677 -0.3895105 0.42396292 -0.15093462 0.09478921 -0.030626299 0.46101174 -0.076608315 0.045933373 -0.30016735 0.03629291 0.21401428 0.10701611 -0.1598926 -0.24114817 -0.28452572 0.41326755 0.005695625 0.21367584 0.21747118 -0.08060755 -0.40288123 -0.27254122 -0.08530052 0.44410697 0.27314857 -0.22693908 -0.072751954 0.29179627 0.38336354 -0.36092833
TGA -0.21757053 0.13863347 -0.167201 0.59579223 0.43403482 0.029740538 0.17263716 0.2101392 0.09792848 0.11136116 0.26240608 -0.036772296 0.10102119 0.3810458 0.10440144 -0.065717265 -0.13366501 0.3412969 -0.3256434 0.043731157 0.62665087 0.4867202 -0.040150434 0.046241775 -0.2674407 0.043170318 -0.1225145 -0.34519917 -0.11609802 0.16514364 0.06469442 0.54557556 -0.20059106 0.17582703 0.004739684 -0.004302329 -0.020483296 -0.18690026 -0.4707447 -0.34682548 0.25265658 0.3154128 -0.09866392 0.08193731 -0.0016038452 -0.15852526 -0.21704766 0.0014585165 -0.5827674 0.27455145 -0.17979462 0.0022063905 0.2513859 -0.2694788 -0.23035093 0.19472115 0.24246772 -0.2508676 0.040005464 0.12084772 -0.28350875 0.04657836 -0.3256855 0.17449248 -0.28215596 0.023867693 -0.28770566 0.33907017 -0.2101154 -0.16605821 -0.77584213 0.007393676 -0.14467503 -0.019518303 0.14084768 -0.031907767 0.19255054 -0.24661408 0.15626998 -0.055683017 -0.28284696 0.26738733 -0.45324302 -0.3254396 0.5274754 0.34835654 0.22695589 -0.43191954 0.10313532 -0.19635525 -0.03341761 -0.7918566 -0.0028135998 -0.06871703 -0.23646805 0.21856372 -0.33866075 0.0631374 0.47492927 0.21466291
ATA -0.38540512 0.044064194 -0.10316153 0.35186324 -0.10357069 0.31594235 0.11866951 -0.0899334 0.36710328 -0.29247105 0.1837351 0.11773166 -0.17713962 0.088370934 -0.22709373 -0.15869138 0.06585146 -0.21529777 -0.10459186 0.46075535 -0.052062437 -0.013652681 -0.49475724 -0.0066446546 -0.25021237 0.1067979 -0.0054088617 0.20090756 -0.04745319 -0.10466885 -0.059526492 -0.14063601 0.17218451 0.75629306 0.15837039 -0.18762358 -0.17201038 0.0018322843 0.30907667 -0.23386386 -0.25816754 -0.11024689 -0.20425712 0.18859209 -0.074444965 -0.01151643 -0.29261917 -0.20889857 -0.114896014 0.22424957 0.060274597 -0.09480493 -0.17322956 -0.5973473 -0.19626029 0.24315457 -0.013975708 -0.030493919 -0.31563887 0.07597101 0.46473 0.30223322 -0.41315517 0.16561928 -0.23220079 0.40265295 -0.4074323 -0.02926232 -0.30453867 -0.22512686 0.13180047 -0.03155316 0.5926618 0.054883696 0.093236595 0.15465651 -0.37842527 -0.4935788 -0.44978604 -0.029581988 0.072605096 0.088468775 -0.5913474 -0.14659654 0.41888183 0.56936014 -0.011582658 0.060021665 0.0387849 0.3331392 -0.11430212 0.06607697 0.20684767 0.33899218 -0.06744835 -0.18020065 0.16938804 -0.0683979 0.3323433 0.053393308
TAT -0.2155949 -0.39092892 0.23040244 0.7094574 0.027884021 0.6127526 0.12930943 -0.025490811 0.019112652 -0.07160276 0.31510302 -0.29833472 0.558146 0.002292639 -0.4723432 -0.17767245 0.29393145 0.041760143 -0.45133707 0.18379812 0.2757838 0.15233429 -0.28078318 0.031457126 0.34399968 0.19929157 -0.05069313 -0.18178041 -0.48940337 0.011276739 -0.13439573 0.3414446 -0.18829176 0.28307265 0.10737775 0.13452156 -0.1232017 -0.24311078 0.0043143514 -0.45845246 -0.058513183 -0.2633858 0.023311365 0.40569875 -0.021622263 -0.31330466 -0.24755646 -0.24308245 -0.026741702 0.04067593 -0.45216835 -0.09470418 0.08938577 -0.10597757 -0.13363749 -0.034739647 -0.16494219 0.43102336 -0.40322256 0.016668646 -0.10695028 0.36303428 0.10029214 0.12225585 0.1233277 0.3422185 -0.24081776 -0.12740217 0.074959315 0.1546513 -0.004156817 -0.10839418 0.078139424 0.04157103 -0.025008902 -0.11296875 0.16838181 0.024101585 0.040123254 0.001086932 -0.07728786 0.24904679 -0.4857565 0.47365254 -0.05988253 0.015949868 -0.7212694 0.16298188 0.10360759 -0.023558946 -0.1065521 0.34981072 -0.123792164 -0.08081382 -0.07237731 -0.124088876 0.48293084 0.047530483 0.11663916 0.2286318
CCA 0.009798788 0.38487947 -0.500866 0.5060254 -0.045958724 0.08454663 0.076127954 0.4468106 0.1680996 0.34047842 -0.3843117 0.0719642 0.5606215 0.025833985 -0.105845764 -0.09365313 0.25596341 0.4565436 -0.1733933 0.42745465 -0.08809732 0.1763367 -0.43099844 -0.121946715 -0.025610924 -0.17392778 -0.03429154 0.21780148 0.13094042 -0.0116875395 -0.13562083 0.36812258 -0.48917213 0.2822071 0.10315813 0.17250422 -0.12964006 0.15255061 -0.06549611 0.5835055 0.19550388 -0.106423005 -0.27904287 -0.12062118 0.46067813 0.18507014 -0.6515551 -0.02919888 0.10512964 0.05737843 0.2857244 -0.1343494 0.022434236 -0.31965464 0.20458618 0.28556338 -0.020943247 -0.0008277567 -0.232841 0.3719518 -0.10483992 -0.30000794 0.16564459 -0.37642163 -0.0627348 0.2346248 0.21527094 0.26839635 -0.116190426 0.507826 -0.115690105 -0.250049 0.08432564 0.20441616 0.01936375 -0.054267105 0.21406898 -0.14675502 -0.69811887 -0.1971975 0.18177253 0.20640399 0.0033404746 0.26763564 0.32772604 0.23433268 -0.0041514384 -0.028471123 -0.051421743 -0.7166875 0.15131676 -0.489542 -0.116501816 0.5137229 -0.22194812 -0.31575722 0.3100075 0.18227606 -0.008705907 -0.2401004
TGG -0.13786061 -0.026796106 0.24847977 -0.26888603 0.48190248 0.19564615 -0.24066462 0.070147745 -0.44528708 0.3726685 0.53608805 -0.119139105 -0.22067969 -0.41533795 0.33145612 -0.2988603 0.24913368 0.16239476 -0.30023563 -0.18052587 0.103974245 -0.041593622 0.14110544 -0.2862386 -0.01990313 0.04680363 0.19865744 -0.31878975 -0.012642483 0.5022343 0.1782823 0.34484884 -0.12908684 0.4682823 0.09549486 -0.14173304 -0.010477555 -0.08936299 -0.11719315 0.027123518 -0.23833989 0.53419775 0.5278752 0.08689887 0.045837108 -0.4626007 -0.009327592 -0.4947927 -0.43138257 0.16063055 0.057754945 -0.033035036 0.037535373 -0.21878062 -0.14733532 0.15953164 0.04529167 0.19617933 0.08998446 -0.16013777 -0.33396226 -0.61957127 -0.40378717 -0.2814508 0.25426492 0.22180536 -0.47577643 0.07831567 0.11828688 0.33479545 -0.2932812 -0.3310187 0.1661109 0.34392062 0.69369453 -0.28582987 -0.30579203 -0.6218218 -0.22309195 -0.059819546 0.20820193 0.26327607 -0.42291188 0.54720527 0.4254295 0.33386365 -0.093554884 -0.2640561 0.050498668 0.073106125 0.1347861 -0.21943213 0.059155777 -0.0934074 0.023420526 0.3543473 0.05192183 -0.009885611 -0.076787956 -0.31135148
TTG -0.14556658 0.22114894 0.1474965 0.24592492 0.24940345 0.3359863 -0.23517373 -0.15733056 -0.095842056 -0.19826016 -0.08524661 -0.57272094 0.29585093 -0.08106124 -0.18048951 -0.13370766 0.049309146 -0.14062327 0.09930939 -0.41332427 0.09994159 0.11462502 0.045400716 -0.03863395 -0.35975602 0.13115449 0.43582007 0.18133663 0.11626318 0.19728953 0.563974 0.37020585 -0.65193737 -0.0008608892 -0.124554306 0.17305435 -0.06489805 0.17342325 0.19789672 -0.006610348 -0.47846252 -0.15219122 -0.032183688 0.2875551 0.27226132 -0.6551939 -0.35809606 -0.096510865 -0.42636955 0.6663715 -0.25522512 -0.05309536 0.14605176 -0.039607164 -0.09360298 -0.077047676 -0.27724057 -0.12691367 -0.43212304 0.14346983 -0.21752772 -0.5528041 -0.11516923 0.05493845 -0.34784585 -0.18831344 0.232721 -0.36877164 0.009123676 -0.18608266 0.22292823 -0.41826233 -0.14629218 0.22807926 -0.13864058 -0.60074 -0.5505638 0.30436212 0.19879042 -0.10985785 0.34624368 0.21849808 -0.2039611 0.056269784 -0.007441415 0.2329643 -0.18355921 -0.6228057 0.20835485 0.36060748 0.2170643 -0.19640127 -0.115768954 0.33448458 0.17899375 0.16580921 0.20616303 -0.18213803 0.45755056 -0.18072242
CAA -0.2043787 0.06811828 -0.23260643 0.42490205 -0.16982473 0.27251297 0.56424433 -0.43723786 0.5692605 -0.13585725 -0.08978024 0.34629363 -0.17854373 0.31587124 0.11952986 -0.47228426 0.25936535 0.3072033 -0.10492434 0.12553422 0.016071899 -0.057649367 0.14821687 -0.23545243 -0.21752799 -0.6956282 0.28721735 -0.054747548 0.43641207 0.0263884 -0.46669784 0.22190885 -0.18303812 0.036115345 -0.017465571 0.30943918 0.03103784 -0.10954738 -0.33225322 -0.03479189 -0.33251175 0.19790179 -0.23852512 0.42301753 -0.0005185439 -0.6724104 -0.40125528 0.20259455 0.07618918 0.2410455 -0.24021111 -0.30051017 -0.054546323 0.12409356 0.17288841 0.24370503 0.04136091 0.092301905 0.004660539 -0.0034751703 -0.23761943 -0.23577984 -0.2143154 -0.048265412 -0.33461207 -0.17891656 -0.42951941 0.15161644 -0.41764838 -0.0995547 0.1303549 -0.119946115 0.10074513 0.31556356 0.21277621 -0.115817584 0.4255134 -0.43540096 -0.4751268 -0.3943279 -0.36871308 0.19697231 -0.2609707 -0.07258286 0.13660759 0.112176746 -0.03822025 -0.024595764 -0.043623533 -0.09766936 -0.44680926 0.38532892 0.001063808 0.3576695 -0.044707995 -0.17470673 0.077991925 0.24825084 -0.15210548 -0.42789006
CCT 0.2248703 0.30980027 0.026323127 0.2319534 -0.27537996 0.5504677 0.21514304 -0.15799928 -0.16962598 -0.1228861 -0.5151267 -0.17995039 0.099686876 0.38983107 0.5581507 0.31621328 0.2254017 -0.20555238 -0.26903716 0.7118918 0.29987085 0.043620717 0.08578691 0.2992443 -0.046659663 -0.030250318 0.13496204 0.047096774 -0.03229322 0.16040108 0.09388403 0.0046684816 0.30090296 0.5313426 -0.29374474 0.3135462 -0.105090514 -0.21345282 -0.14997889 -0.008400552 -0.067249395 -0.2752976 0.36700842 -0.091880806 0.2590066 -0.33155504 0.019462649 -0.76975125 -0.17651226 0.38876596 0.11203506 0.0753626 0.0398218 0.13934296 -0.27809325 0.14662471 -0.11089595 -0.09466292 -0.23276052 -0.63686424 0.0029556146 -0.08493198 -0.050625045 0.33441767 -0.4315444 -0.311598 0.38541636 -0.01428097 0.4016161 0.24881598 -0.5390196 0.07322219 0.07076283 0.42150563 0.37051407 -0.05998429 -0.19143236 0.13260679 -0.15344739 -0.44486293 0.22523162 0.115337275 0.071063474 0.26371625 -0.02226663 0.030392513 -0.4436731 -0.1315502 -0.7349073 -0.37409225 0.21477374 0.2380281 -0.086053364 0.30960765 0.39560398 -0.058925737 -0.021834858 0.17565835 0.11253283 0.024810713
AGG -0.4863939 0.50186145 -0.23280528 -0.256268 0.4551266 0.32808653 0.32170758 0.04256675 -0.43121395 -0.010838186 0.20073843 0.32171705 -0.0067680166 -0.16123572 0.3006871 -0.48346478 0.095235616 0.21394171 -0.25717932 -0.10966035 -0.25983337 0.20603575 0.4171189 0.53612727 -0.12898274 -0.20633793 -0.0037761314 -0.4853155 0.15374011 -0.023666449 0.27821216 0.5695083 0.2650118 0.46567672 0.47039828 0.12762858 -0.028291345 0.55774826 -0.086766936 -0.34756124 -0.13273603 0.19198807 -0.061712395 0.118988074 -0.049966346 -0.19035926 -0.21792029 -0.25562385 -0.32177156 -0.12314001 0.26243666 -0.28769884 -0.027933184 -0.4820933 -0.27628678 -0.26224953 -0.7381245 -0.072046384 -0.101379625 -0.27386025 -0.33666062 0.12314276 -0.34478122 -0.11083692 -0.04420696 0.38340515 0.064932294 0.12936231 0.2662197 0.13880128 0.40689677 -0.21415864 0.30376917 0.638764 0.3896551 0.052095167 -0.10964497 -0.03798204 -0.070738725 0.14284565 -0.02220143 0.28390688 0.31615308 -0.11449632 0.24645752 -0.064689696 -0.15147462 -0.16713133 -0.033278313 -0.100804925 0.47438124 0.23515484 0.1508599 0.22465833 -0.25674394 -0.23708673 -0.038611654 -0.21112776 0.28868225 -0.38966432
ATG -0.054312754 -0.39824206 -0.47450864 0.13420476 0.2211329 0.29058102 -0.056381673 -0.23685813 -0.056451637 0.23500331 0.30768615 -0.24386771 -0.06274279 -0.036342088 -0.34237942 -0.115585566 -0.13535729 -0.36898452 -0.51631206 0.11423796 0.09384815 0.3040739 -0.039840028 0.1505314 -0.43607464 -0.14001055 0.29964706 -0.3234531 0.10165863 -0.13419366 0.20825201 -0.10618984 -0.51519185 -0.059287723 0.5887066 0.12440239 -0.0060089044 0.19923499 -0.35926703 0.0235748 -0.2460013 -0.22614488 0.038367048 -0.17767203 -0.1736509 -0.18578807 -0.19543283 0.091947965 0.22234307 0.531312 0.2162329 0.03303853 0.08789447 -0.14139965 -0.33631974 -0.26853025 0.22361466 0.009427839 -0.65283 -0.041249793 0.18864681 -0.19191952 -0.42110348 -0.39569908 0.16113278 -0.39068237 -0.22665776 -0.036445547 0.20543633 -0.14185461 0.3065481 -0.6629171 0.0074804104 0.69449717 0.20575835 -0.14710256 -0.43821773 -0.13079168 -0.1025213 -0.24547379 0.26640072 0.45045078 -0.100706816 -0.13015687 0.017319601 0.07846282 -0.58261096 -0.18160108 0.014885783 -0.11944507 0.3844985 0.05858681 0.15432048 0.08706929 0.071504965 -0.049921088 -0.26378304 -0.12199253 0.77050686 0.12029744
CAT -0.5369734 0.019124325 0.11447538 0.3535249 -0.05689355 0.4145405 0.21370599 0.2001789 -0.46601647 -0.369125 0.13725246 -0.14646123 -0.22071972 -0.22216003 0.12199773 -0.19906668 -0.27969417 0.06433033 -0.38811776 0.1438929 0.043799046 0.00013190515 -0.0699805 0.3058274 -0.11241049 -0.4915334 0.22241096 -0.081843466 0.013201343 0.0032022442 -0.072160095 -0.11303773 -0.23689584 0.020740278 0.47490504 0.33516788 0.15848765 -0.049877796 0.39980602 -0.52699643 0.19604266 -0.4763266 -0.0027819735 0.1500114 -0.21493536 -0.3798552 -0.38364533 -0.10936737 -0.22081095 -0.37226984 -0.26316103 0.0589507 0.046298206 -0.61754656 -0.25588256 0.15873379 0.069055684 0.066421434 -0.23859271 0.019995468 0.14028229 -0.29720312 0.13709593 0.45080322 -0.19213459 -0.20364764 -0.25392893 -0.1473814 -0.29450992 0.5676954 -0.38242728 -0.49695987 -0.32602298 -0.0699991 -0.14583224 -0.18296354 0.26730374 -0.16023007 0.031574596 -0.33803228 0.109323 0.03443105 -0.50570136 0.09828567 -0.21414436 -0.108405195 -0.46477768 0.15089075 -0.27936706 -0.4760095 -0.3009546 0.28299427 0.039093938 0.025157077 -0.095435016 -0.2612993 0.5564593 0.53937465 0.168913 -0.011668571
CTC 0.18420176 0.10045753 0.18653215 0.27098516 0.14489974 0.3738323 0.26903796 0.307568 0.122907385 -0.31592387 -0.18677494 -0.16752943 0.46421492 0.23901734 0.21579006 0.21734117 0.17347297 -0.17179973 -0.8011555 0.036649182 0.26761103 -0.259467 0.12026205 0.30182627 -0.47696036 -0.4856082 0.28271696 0.02253896 0.4260684 0.31680164 0.14469656 0.35828528 -0.037637886 0.502939 -0.24172622 -0.17429757 -0.4162765 -0.11621791 0.1681551 0.12512192 0.090407915 0.25479287 0.13284093 -0.098835506 0.2814986 -0.18615168 -0.2691386 0.08977403 -0.3682961 -0.08671532 0.7557104 0.2944094 0.65695685 0.07520642 0.29892045 0.0700433 0.23965007 0.031928066 -0.17294373 -0.32422215 0.417991 0.1605587 0.08673998 -0.1626677 -0.014745327 -0.0467815 0.06625173 -0.10468103 0.33041185 0.16495231 0.14000387 -0.00892665 0.27538317 -0.45171094 0.055406563 -0.12602225 0.5916614 0.06485021 -0.2641799 -0.35854095 -0.3153755 0.096226685 0.024857398 0.13158381 0.29066044 -0.33419997 -0.42169565 0.073699474 -0.3667856 0.06144875 -0.16359843 -0.19177212 -0.14836816 0.07227893 -0.36798513 0.015750362 0.34343475 0.14768359 0.12731734 -0.55814654
GAG 0.121510096 0.29765928 -0.14129409 -0.24859153 0.51867884 0.0011584027 -0.079109274 -0.042407393 -0.022573937 0.22902445 0.16891798 -0.0067565786 -0.0015502417 -0.1828565 -0.0009225704 -0.718787 0.123845056 0.0022750162 -0.39714164 0.09580313 0.43551373 -0.062444948 0.24552971 0.70934486 -0.3750551 -0.17902137 -0.20130004 -0.288437 -0.17951012 0.299717 0.06068775 0.41320467 0.11342064 0.06367209 -0.3177423 -0.14126109 0.12203484 0.14833286 0.36994055 -0.2322185 -0.53159606 0.22057636 -0.17011046 0.04119825 -0.16509286 -0.26734468 -0.4502079 -0.37780932 -0.41357017 -0.15036635 0.3345379 -0.11708976 -0.07326435 0.06931837 0.2455238 0.109780036 0.0591132 -0.2917596 -0.3710445 0.3273593 -0.007554611 -0.07315254 -0.52996355 -0.3019702 -0.12038269 0.273159 -0.0034241835 0.8302001 0.016398322 -0.3086803 0.08682117 0.2854767 -0.046734564 0.4283732 -0.37807852 -0.40041798 -0.28991124 -0.17699857 -0.41152012 0.22365399 0.053753085 0.43055055 -0.25804886 -0.03944115 -0.055759408 0.16896363 -0.13736528 -0.19899046 -0.20905079 -0.29695833 0.08107178 -0.09724153 0.1294619 0.1481035 0.30382377 0.06960422 -0.12037396 0.2974554 0.023857482 0.094418995
ACT -0.20380531 0.24322201 0.43591776 0.26077366 -0.313517 0.339061 0.36612839 0.020817714 -0.05953947 -0.46031362 -0.51169497 -0.09622943 0.043543 0.052666392 0.09021206 0.057987884 -0.4065134 -0.09290254 -0.6674377 0.44228545 0.6338772 0.19133559 0.23141465 -0.09886975 -0.3156063 -0.34722587 0.38739792 -0.10190012 -0.02787627 -0.03888248 0.6071604 0.14681898 0.14689735 0.23535436 0.39424297 -0.14418326 -0.18856205 -0.2701642 -0.014016164 0.3809831 -0.16165565 -0.11190637 -0.020081308 0.09879689 -0.19722177 -0.0028098647 -0.11467739 -0.70426947 0.010135636 -0.22329415 0.07928088 0.31237075 0.23506972 0.42010367 -0.3392778 -0.19819441 -0.6174938 -0.017607776 -0.307492 -0.14570841 -0.11857561 0.22665228 0.30191848 -0.27439448 -0.3678336 -0.11834467 -0.48046485 -0.41103822 0.13075946 0.17963949 -0.21833713 -0.23366089 -0.17140126 0.15137255 0.13862932 0.114683926 -0.521359 -0.14793205 -0.1088208 0.100751035 -0.30269042 0.06759762 -0.34504375 0.09481368 -0.032284476 0.011087934 -0.38330704 -0.17731065 -0.1480411 0.0057108765 0.16505204 -0.08775682 0.24927671 0.10519592 0.19265676 -0.37974072 -0.36655268 0.16995418 -0.55274683 0.06009525
AGT -0.25533327 -0.13171312 0.45627022 -0.13205667 0.13579811 0.27742273 0.21291687 0.31382263 -0.3109041 -0.04419795 -0.17382616 -0.22290054 -0.012411469 -0.16338566 -0.22836597 -0.0130432565 -0.022564067 -0.008567216 -0.21987675 0.5192089 0.5010775 0.26385176 0.06007169 0.17651567 -0.49733242 0.12018541 0.37326413 -0.21479057 0.6340745 0.22594112 0.18453498 0.12528686 0.2183646 0.123118825 -0.377797 -0.081469916 -0.25662437 0.11427987 -0.23308818 0.22173674 -0.03002371 -0.3165352 -0.5082905 -0.1800443 -0.018880108 0.14870444 -0.4411651 0.18077104 -0.12835494 0.20063545 -0.6334363 0.09006641 -0.04836524 -0.4694662 -0.27190533 -0.2289969 -0.39121342 -0.26898342 -0.14621578 0.20192039 0.004368757 -0.38565847 -0.25120136 0.2853152 0.07750909 0.74738836 -0.11997251 0.16820422 0.16359377 0.083630055 0.4275538 0.16891883 -0.25057685 0.51362 0.38535187 -0.104401276 0.0035637189 0.019538585 -0.004054703 0.06821178 0.061417498 0.19859278 -0.19987772 0.18509078 0.1139499 -0.5257875 -0.2124379 -0.32457682 -0.72468203 -0.055751182 -0.040954925 0.52655447 0.020382255 0.017373351 0.13579509 -0.32926974 0.15119322 -0.4070858 0.18917671 -0.20581111
GGA 0.020773325 0.21822464 -0.10982892 0.5979956 0.14587973 0.17931135 0.55385906 0.4282487 -0.13514218 0.30270597 0.75828964 0.08205874 0.14807376 -0.13663508 -0.022588 -0.11338353 0.08941738 0.27831575 -0.25302315 -0.02900136 0.054587323 0.35498932 0.422612 0.075168766 -0.36148885 0.18333144 0.039779436 -0.377594 -0.18611133 -0.11865462 0.14192629 0.4869887 0.0045767743 0.30609834 -0.06842713 -0.22298084 0.17163318 -0.09814602 0.040943556 0.19193694 -0.08545364 0.16519812 -0.5768724 0.1918301 0.62203455 -0.15306576 -0.6355223 -0.1182076 -0.43282163 -0.4050067 -0.3673721 0.061570633 -0.16552027 -0.20982268 0.15161122 -0.35516465 0.15216354 -0.07847046 0.34744948 -0.32238558 0.20820276 -0.06661687 -0.025045976 -0.3103849 -0.36977705 -0.19703522 0.21093476 0.39905676 -0.29949805 -0.5351775 -0.4452111 -0.4637525 0.42185685 0.5199961 0.254116 -0.048031792 -0.14402068 -0.13715467 -0.24450158 -0.07716377 -0.10469136 0.2406678 -0.27191088 -0.39334372 -0.14044088 0.32546338 -0.053298805 -0.21345627 -0.2760026 0.31042245 -0.13728356 -0.29623988 0.41553134 -0.0785205 0.01634181 0.4853942 -0.14806426 0.24022378 0.08687199 0.06542259
TCC -0.2631918 0.29260018 0.12065286 -0.035823487 0.21733387 0.50364995 0.26623887 -0.113558665 0.05056037 0.029918822 0.4130305 -0.25637862 -0.05710507 0.21880108 -0.3167875 0.21684948 -0.0144189345 0.09392024 -0.28045306 0.17101754 0.41879624 0.08302427 -0.069729 -0.52446645 0.011628722 -0.13767883 -0.122661985 -0.24932714 0.47749344 0.35747132 0.043185562 0.09473014 -0.45100662 0.73507637 -0.56743264 0.4176311 -0.5833187 -0.017005816 0.043959364 0.1613184 -0.03749262 -0.22739865 0.11509556 -0.3158397 0.28790888 -0.17903884 0.10049759 -0.12635608 0.10866018 -0.3976679 0.4966354 -0.16909523 0.21428451 0.080563575 -0.26300037 0.30037522 0.049903296 -0.10359058 -0.24727741 -0.00034220814 -0.47512174 0.52606976 -0.12024506 -0.29209742 -0.11638763 -0.021630004 -0.15981062 0.18966725 -0.3286461 0.35351586 -0.5352272 -0.28012252 0.0753704 0.29088545 -0.56445247 -0.08858652 0.30194342 0.6769495 -0.28769946 0.020060198 0.032487206 -0.08504759 0.12217297 0.060174033 -0.13251911 0.0992237 -0.3342673 0.0832963 -0.72153264 0.20654345 0.028024068 0.014716475 0.10651481 0.40084323 -0.33285993 0.17652139 0.3444733 -0.13426831 0.07850552 -0.417008
CAC 0.26909038 -0.22132632 -0.38919005 0.37562102 0.26330218 0.62181765 0.028246531 -0.12171612 0.15040752 0.04468546 0.19361381 -0.25123072 -0.2948159 0.099073 0.31213218 -0.23375104 -0.13286099 -0.13171685 -0.58126837 0.31810397 0.008438115 -0.39399987 -0.57176614 -0.32475004 -0.005450781 -0.32062128 0.13246885 -0.06267709 0.43041146 0.1534221 0.3238081 0.090174414 0.10970868 0.024765003 0.035043903 0.19630373 -0.13745932 -0.37763625 0.2889825 0.22142883 -0.3236628 -0.0061136894 -0.038853843 0.3375434 0.34729797 -0.32496652 -0.6855659 -0.17308442 0.023796778 -0.5635975 0.07892265 0.29448 0.020050373 0.28109258 0.17496847 0.27759874 -0.0732902 -0.57583183 4.1768053e-05 0.13463536 0.03850873 -0.014481749 -0.0672462 -0.09878037 -0.42880455 0.16419327 0.01841068 -0.22494105 -0.062106248 0.004923237 -0.39762715 0.0077108024 -0.087387174 0.12326346 0.30653295 0.47838566 0.22272725 0.3613863 -0.052978046 -0.29973933 0.44343925 0.23513244 -0.16572706 -0.298678 0.48198926 -0.12956394 0.02050757 0.13281848 -0.14432894 -0.39666748 -0.14489284 0.2133703 0.2504112 0.29439348 -0.5770015 -0.03919061 0.07552033 0.32180625 0.22472885 -0.6398432
GTG -0.3279416 0.025309155 0.19695769 -0.060885094 0.08015738 -0.21061228 0.12442916 0.022672888 -0.26086703 -0.073098205 0.8244409 -0.61853635 0.43830487 -0.04074339 0.12752612 -0.19895013 0.21672642 0.21896711 -0.32779643 0.20255405 0.21207815 -0.043452132 -0.29692465 0.67348146 0.009520656 -0.3234007 0.43384147 -0.14411168 -0.055004418 0.030485881 0.12069414 0.12687668 -0.6257564 -0.1587719 -0.100076795 -2.6250567e-05 -0.09185896 -0.005921691 0.0064045205 0.07422011 -0.1404458 0.23788452 -0.6226806 -0.23690054 0.14994949 -0.4802326 -0.12920475 -0.11942651 -0.2054077 0.44223553 0.12297624 0.08101663 -0.05857904 0.16226405 0.048857268 0.08194324 -0.17647547 -0.29355246 -0.38087648 -0.018442543 -0.24864005 -0.16657712 -0.14175785 0.17645803 -0.052662697 0.1929716 0.20629704 0.021418922 0.15173389 0.1169117 0.09017746 -0.46252674 0.014939617 0.43391877 0.6473751 -0.34758285 -0.09715005 0.099174105 0.23087591 -0.14618604 0.32665423 0.28914398 -0.12787683 -0.0737203 0.039253473 0.24275497 -0.43217537 -0.3571363 0.25787982 -0.010142301 0.39996296 0.33959132 0.3510126 0.42405438 0.14989758 0.4758159 -0.37935057 -0.07155959 0.10639696 -0.038503118
AAAA -0.19193505 -0.11911584 -0.52025294 0.08122054 -0.25126806 0.3586494 0.56191117 -0.11446772 0.81782395 0.2436595 -0.45344698 0.22876512 -0.22355565 -0.018155387 -0.14513367 -0.14618495 -0.16337462 0.14149556 -0.13286191 0.08691917 0.15428606 -0.27638778 0.13896096 -0.17443961 -0.43079078 -0.00013788631 0.1391834 0.26328158 -0.22116232 -0.20210376 -0.16594894 0.8122053 0.13718805 0.57351 -0.18143083 0.036819465 0.08817518 0.11330796 0.1011976 -0.09311197 0.32873428 0.23832111 -0.36837697 -0.19210486 -0.43843544 -0.43756545 -0.5313899 -0.115130715 -0.10063474 0.07098876 0.052010436 -0.22327957 0.08833776 -0.5159671 0.10706232 0.16038713 0.019783508 -0.12370611 -0.43567485 -0.12412028 -0.15916939 -0.1382805 0.30603084 -0.1162239 0.073909 0.38792208 -0.13763042 -0.021502133 -0.19180773 -0.23250782 -0.107643425 -0.12908117 0.058409035 0.7497423 0.16407152 0.16991264 -0.15957446 -0.48713946 -0.052958477 -0.08358916 -0.14583941 0.6039184 -0.41851932 -0.112721816 -0.17116609 0.065977596 -0.35053307 0.12622136 0.081010684 0.43566287 -0.6971914 0.24663155 0.2045772 0.5548733 -0.4397125 0.07828203 -0.12958185 -0.2817538 0.0125424415 -0.13771226
TTTT 0.024925243 0.061681896 0.4634846 0.35281044 -0.22354196 0.7120642 0.018053655 0.14932118 -0.15358831 -0.016058816 -0.6421084 -0.4173287 0.058776878 0.36782497 -0.5124856 0.51861066 -0.06904633 0.30938804 0.16193455 -0.43743196 0.14068687 0.2072808 -0.16049123 -0.08904806 -0.60379434 0.3806734 0.54690737 -0.26059783 -0.068746336 0.123719394 -0.3212512 0.24555652 0.086439535 0.34612107 -0.002335082 0.093483254 -0.27268556 -0.1868479 0.18711042 -0.4547737 -0.3297198 0.21895738 -0.0987428 0.25341576 0.27924097 -0.4453144 -0.24575141 -0.41477963 -0.4607288 -0.17390259 -0.0016126105 -0.033962525 0.63874686 -0.18058991 0.071087554 0.112475246 0.15408708 -0.2493802 -0.39781696 0.08635572 -0.4046582 -0.20966272 -0.026591562 -0.039067734 0.19444473 0.21436666 -0.5173628 -0.2523325 0.019857492 0.012799931 -0.17474806 -0.46698555 0.046273038 -0.047233764 -0.058668476 0.10426415 -0.01922012 0.3119524 0.045377754 0.22470172 0.19268963 0.36444506 -0.3808993 0.3680027 0.09375132 0.3256757 -0.1678152 0.31094962 -0.069937 -0.34057954 0.34007484 0.63572925 0.31474072 0.10662119 0.20635936 -0.123266175 0.3223767 -0.22428708 0.19703941 0.34139797
TGC -0.28061745 -0.1602878 0.29923245 -0.08150709 -0.054352317 0.14488387 0.18400484 -0.038043965 0.40455 -0.05623884 0.60304075 -0.503375 -0.113464504 0.3758281 0.49082863 0.26153925 -0.47069925 -0.22685273 -0.5193615 -0.04874287 0.22109266 0.49765575 -0.1032834 -0.4950376 -0.37162897 0.13171114 -0.42040163 -0.024583712 0.58952117 -0.113452904 -0.01458452 0.36068672 0.05301957 0.31767273 0.24603163 -0.2045016 0.22983956 -0.34214988 -0.43112114 -0.19424996 -0.2589839 0.02139396 -0.21499692 -0.25630116 0.3113258 -0.13290529 -0.4315139 -0.28411067 -0.35796234 -0.09796388 0.53399104 0.043905504 0.14179888 0.28290018 -0.18908024 0.7068241 0.17535435 0.123541966 -0.36314625 0.15339695 -0.29129294 -0.32143873 -0.09948382 -0.06718347 0.08288027 0.25367853 0.12689933 0.13762562 0.27932677 0.43909973 -0.10501577 -0.13819614 0.5221685 0.29412457 -0.3193435 -0.19328168 -0.30665502 0.13494448 0.0752125 -0.0820918 0.11892736 0.1450621 0.32593477 0.08537702 0.5090351 -0.04480829 -0.3655514 -0.07170323 0.285927 -0.24868712 -0.18640971 -0.13872808 -0.10258998 0.28096265 0.17873426 0.112377055 0.6084651 0.46109706 -0.48459756 0.016276143
GCA -0.0039473004 0.5062737 -0.08365306 0.26359537 0.37109062 0.17756923 0.015255477 -0.04674708 0.1695311 -0.08244022 0.08182807 -0.0011056947 0.2890807 0.023504425 0.20949583 0.19190998 0.20451468 0.30905038 -0.20894036 -0.32280007 0.25978854 0.096283615 -0.5116526 0.20767918 -0.31558055 -0.1660046 -0.031609103 -0.09016105 -0.12686485 -0.10984837 0.12744386 -0.06399119 -0.1068787 0.26275575 0.6209171 0.081734255 -0.1182045 0.22319421 0.0092485715 -0.2752484 0.07003508 0.023356633 -0.306859 -0.031043677 0.4799775 -0.18912011 -0.4767436 -0.113597326 0.2472909 0.20212997 -0.11670089 -0.27605018 -0.029612225 0.06648967 0.20093736 -0.25383243 0.39667585 -0.372 0.257198 0.2932589 0.14157976 -0.5599237 0.22005656 -0.4301384 -0.25277656 0.6043862 0.21824001 0.0009964126 -0.2999219 0.689441 0.23056792 0.4584641 0.17569129 0.4648561 0.10982498 0.04667697 0.15201575 -0.02636386 -0.8625303 0.15160336 0.19781217 0.23393765 -0.40574408 -0.31187892 0.060713835 0.14143454 -0.6495419 0.066333406 -0.15839684 -0.19410716 -0.23125294 -0.49986175 0.068579175 0.15176095 -0.28047475 0.27822152 -0.1276572 0.106625415 -0.19435744 -0.0709444
AAC -0.17355564 0.3105168 -0.38398308 -0.010136136 0.23596904 0.24861057 -0.24996698 -0.3691483 0.23816283 -0.04935987 -0.24181657 0.22387548 -0.34780613 0.44154686 -0.014916036 -0.12714612 -0.21785331 -0.21247788 -0.2935385 0.13172601 0.49241006 -0.06696932 -0.2145688 -0.21760051 0.47655037 0.004272875 0.3487698 0.035018735 -0.0033735265 -0.022160655 -0.22510223 0.25129697 0.34459525 0.61213243 -0.10155009 -0.7165689 0.024813574 -0.2455473 -0.2949592 0.30751413 -0.24940374 -0.058256503 -0.28072402 -0.13462067 -0.081106745 -0.31548285 -0.31345755 0.14493613 -0.22414528 -0.19709308 0.47083345 0.041307535 0.45903367 -0.21471025 -0.18466781 -0.48625585 -0.15545924 -0.32311925 0.16715474 0.08347677 -0.0062948493 0.09363291 0.33843586 -0.5490396 -0.34360814 0.5004424 0.26892796 -0.3317238 0.1960307 -0.08832098 -0.45854637 -0.1500049 0.0011022226 0.35534745 0.19204979 -0.15910062 0.27673 0.2557481 0.2182029 -0.28815392 0.6106457 0.1882571 -0.7249153 0.007080587 -0.021986429 0.17815213 -0.33447406 0.114045724 0.20594008 -0.18481639 -0.32434762 0.18062104 0.27684376 0.13165897 -0.5464138 -0.2341429 0.14281915 0.2921268 0.044023227 -0.3549831
GTT 0.23608755 0.15909466 0.51681 -0.24142611 -0.29007593 0.48362705 0.29615772 0.13331012 -0.42367905 -0.17849542 0.2874893 0.099024974 0.5405127 0.124682434 -0.4259215 0.2752955 0.018153457 -0.014773505 0.090568714 0.37493291 0.08184343 0.2546113 0.014754126 0.1452797 0.13285533 -0.033066224 0.44984457 -0.11878255 -0.10262725 0.45806482 -0.020971522 0.46892035 -0.3181629 0.09454065 0.30205622 0.25737354 -0.5484683 -0.3319793 -0.35152957 -0.547997 -0.27887505 -0.17318894 -0.4489503 0.19211294 -0.12011393 -0.15636624 -0.20944378 -0.22479162 -0.42395955 -0.13210872 0.065992884 0.055474922 0.24628991 0.31696516 -0.11765353 0.45609114 0.012081964 -0.6119271 -0.37404808 -0.16358307 0.19495912 -0.34392953 0.2459744 -0.07385963 0.32222325 -0.00697199 0.17951056 0.017163008 -0.19713697 0.09396483 0.18019126 -0.09511761 0.16473962 0.040802494 0.20811844 -0.15365553 0.0107609555 -0.5149722 0.26922792 0.14995086 0.21253893 0.5029792 -0.056070723 0.26718497 0.42623556 0.14518775 0.021262562 0.3463335 -0.53108925 -0.31265688 -0.11769082 0.29086822 0.46935317 0.3373557 0.26954252 0.12119471 0.21748745 -0.2966212 -0.005793602 0.38474873
AGC 0.2725548 0.22362372 0.054556653 -0.24965768 0.2506227 0.26953787 0.08191187 -0.20855768 -0.092166856 -0.40880382 0.4501512 -0.18552804 -0.4286318 0.15732434 0.19982964 0.043155108 0.002846794 -0.28870088 -0.21969093 0.6843323 0.4110206 0.14271393 0.12798066 -0.17586656 -0.23433992 -0.26579592 -0.011049442 0.30367962 0.38421655 0.009546576 -0.351832 0.29648247 0.025699152 -0.08991205 0.48502228 -0.18814072 -0.067931384 -0.17520145 -0.044811867 -0.03419639 0.30024385 0.20769043 -0.26499155 0.3239516 0.17946328 -0.16289951 -0.47087327 -0.17197123 -0.21983118 -0.40544218 0.17921862 0.1623111 0.6844824 -0.20709786 -0.39459753 0.103757344 -0.5468294 -0.29901475 0.38727176 -0.06978336 -0.055443056 0.018043742 0.17285024 -0.08064401 0.1972559 0.036012895 -0.27293462 0.5462015 0.4561484 0.13336845 0.2988389 0.113663 0.13453372 0.36781982 0.08424389 -0.04740512 0.09312372 0.57643956 -0.5058427 -0.17313568 0.24971174 0.3631756 0.22431529 0.106806315 0.14373776 0.13522963 -0.441034 0.091303095 0.40494472 0.13906586 0.09602937 -0.24969669 -0.3862349 1.1984919 -0.015480541 -0.275443 0.43212262 -0.17532973 -0.14362948 0.12316994
GCT 0.13549982 0.34035572 0.6655792 0.27756423 -0.06691737 0.14755943 0.47806314 0.68618196 -0.4269061 -0.03454473 -0.16894145 -0.039503302 0.29495013 0.40113652 -0.018415289 -0.024247877 -0.2915146 -0.24169448 -0.07005841 0.5488492 0.6077621 0.10539593 -0.046558928 -0.045317072 -0.19609681 -0.46048784 -0.015003898 0.2657942 0.23990892 0.15885356 0.046739314 0.03141537 -0.086866826 0.7177336 0.004769913 -0.02479134 0.1564791 -0.07143778 -0.011051491 -0.5016447 -0.020060977 0.0869309 0.14073558 0.008514008 -0.030735493 -0.21769719 -0.31550798 -0.38281754 0.16556743 0.00927788 -0.22547059 -0.15051006 0.061482128 0.38461736 0.12498334 -0.26275122 -0.039444465 -0.48038277 -0.19029932 -0.45271975 -0.09919165 -0.3825482 -0.02334474 0.09558253 0.031264644 -0.06647416 -0.17710117 -0.078897856 0.29340512 0.093438484 -0.059287276 0.41327772 0.12960893 0.4181347 -0.056091003 0.2249008 -0.5825714 -0.0031022634 -0.11303372 -0.4352732 0.45164502 0.1420706 -0.06968065 0.4659433 0.011178157 -0.16121648 -0.41478673 -0.42191857 -0.10081143 0.08635348 0.49403104 0.44472662 0.109800756 -0.14620078 -0.24735567 0.24883781 -0.32802296 0.5705066 -0.0130103715 -0.082407996
CCC 0.0049900636 0.25521272 -0.51707876 0.11254207 -0.20524982 0.5549847 0.55474097 0.18803026 0.17703877 0.20909332 -0.004384494 -0.4876442 0.052675046 0.36625206 0.07484804 -0.0070776963 0.04974494 -0.20618023 -0.56968576 0.38309717 0.49517694 -0.01382822 -0.23996611 0.30652982 -0.2817615 -0.016178958 -0.07758493 -0.12021241 0.60176533 0.7582319 0.24689558 -0.07375877 -0.2692361 0.51814544 -0.32053947 0.0646348 -0.21781601 -0.14869648 0.122393705 0.2495463 0.110189535 -0.12225989 -0.43518 -0.011179967 0.662819 -0.45381463 0.20142348 -0.13373603 0.30865496 0.01699466 0.58837616 0.18511295 -0.095317796 -0.024245007 -0.19821925 -0.01621012 -0.1933934 0.17672344 0.16344114 -0.23212834 -0.2560337 -0.12885118 0.30648735 -0.2818287 -0.27611318 0.12842701 -0.17816585 0.33494022 -0.22469749 0.22043957 -0.21190502 0.14093727 0.10532244 -0.3815343 -0.054453332 -0.35662496 -0.05718644 0.23623432 -0.25643635 -0.28867579 0.50414133 0.16360903 0.14662015 0.12887841 -0.012686942 0.051598277 -0.0099054 0.16097598 -0.24307583 -0.13290219 -0.041101642 0.07592938 0.105745554 0.42522788 -0.47388354 -0.24244626 0.39066032 0.28574112 -0.10793744 -0.13955374
GGG -0.27594662 0.34176672 0.2963561 -0.276191 0.533868 0.552127 -0.15778682 0.26782835 -0.42391315 0.32559144 0.42921183 0.27352783 0.27277556 -0.044581417 0.07171849 -0.34081948 0.12824468 0.09329692 -0.29534996 -0.11079237 -0.11340911 0.4161937 0.132016 0.7407187 0.08969001 -0.23525634 -0.024165992 -0.2727751 -0.047093023 -0.44083744 0.041727632 0.4002559 -0.03473801 0.36253217 0.13837735 -0.071731254 0.16624045 0.03936747 -0.24466336 0.21898977 -0.19516294 0.30145624 -0.30751806 0.48761496 0.3759344 -0.27213514 0.055018127 -0.53299767 -0.68095803 -0.14969498 0.2933182 0.19542548 -0.16721347 -0.27931637 -0.19343728 0.041436724 -0.001701636 -0.35300133 0.0044059893 0.09242722 -0.6061287 -0.3919305 -0.5433634 -0.4969017 -0.12938592 -0.27556902 -0.2721674 0.16717611 -0.2190139 -0.050950967 0.16343306 -0.0681056 -0.039702453 0.5950708 0.324059 -0.19731107 -0.21954466 -0.2332097 -0.2440551 -0.15028742 0.21648377 0.124546915 0.044111695 0.32053813 -0.12715712 0.046417728 -0.11463493 -0.2975538 -0.069466904 0.2366951 -0.05216589 0.04719394 -0.119215555 0.067290775 -0.09952835 0.18211427 -0.10015285 0.09494861 0.028096912 -0.31351164
GAT -0.48072484 -0.2451605 0.23609985 0.06702452 -0.0055328836 0.330004 0.2524561 0.054802414 -0.102253646 -0.18605995 0.5051247 -0.22817607 0.28507507 0.14521508 -0.33720517 -0.0038305141 0.11797013 0.29800925 -0.2783094 0.4111809 -0.19736248 0.39431065 -0.16376355 0.42045286 -0.2296444 0.12589999 0.31179413 0.25607148 0.025507325 0.12663716 -0.020533806 0.21131329 -0.17746542 0.017987581 -0.06583046 0.03262281 -0.06849509 0.45219046 -0.09121214 -0.56420803 0.26522046 0.2652744 0.0541991 0.33852372 -0.4727803 0.20865709 0.16072553 -0.6480029 -0.18637551 -0.47954884 -0.46729812 0.30454537 0.17855476 -0.46707433 0.2889262 -0.125643 -0.12097329 0.20151737 -0.07400731 0.3174689 0.08669773 -0.06139628 0.045816816 -0.12573539 -0.12199292 -0.024013456 0.08836934 -0.3823233 -0.3388838 -0.24500984 -0.38478255 0.3152968 -0.07460997 0.2973756 -0.09842312 -0.7293924 -0.14223786 0.19442871 -0.38484555 -0.15942462 0.1427278 0.54464 -0.4480148 0.29447785 0.24854487 -0.27781835 -0.5260859 0.035875995 0.018204022 -0.4350667 -0.084155425 0.16907954 0.18682264 0.21716093 0.14991769 -0.107201084 0.20111088 0.59004176 0.06271894 -0.00966321
ATC 0.07795424 0.25840697 0.081945725 0.19538869 -0.18966906 0.49443403 0.28751886 0.32204574 0.5948505 0.17128989 -0.024777433 -0.37826508 0.10087591 -0.19062825 -0.30555782 0.06971688 0.4487945 -0.94578785 -0.18071549 0.59943485 0.16713963 0.18593405 -0.21677616 -0.58271396 -0.68807733 -0.32233134 0.46743506 -0.49626774 -0.027333248 -0.38344947 -0.12902778 0.040406585 0.17950924 0.10368437 -0.036341187 -0.345913 -0.6449975 0.016950894 0.12563954 -0.01777419 0.13572845 0.027044324 0.2636225 -0.35960838 0.04631723 -0.2656903 -0.06754033 0.3006968 -0.46185955 -0.072796084 0.25582945 0.043507595 0.11695715 -0.046910834 0.1837125 -0.3031949 -0.23432605 -0.31365982 0.37848824 0.10226626 -0.0764601 0.5789147 -0.42996484 0.067669846 0.005303715 -0.24753848 0.07380586 -0.31344214 0.37617987 0.48001122 -0.26468176 0.07014819 0.09409448 -0.030640606 -0.2192324 -0.30987337 -0.48797563 0.030197259 -0.45180196 -0.3106545 -0.06403307 0.4305981 -0.16524498 -0.063292824 0.2305187 0.08395301 -0.32101905 0.09033707 -0.08045617 -0.36801633 -0.7503318 0.23150878 -0.14500563 0.27501705 -0.6933572 -0.022348452 0.18050213 0.110035606 -0.051860318 0.08020286
TAG -0.23331621 0.497412 -0.21748038 -0.03311698 0.50022244 0.21667488 -0.4518171 0.16444719 0.56584156 0.0033632752 0.0060572773 0.07532372 0.22392559 -0.12300908 -0.35755372 -0.077246495 0.08477492 0.28202447 -0.38447827 0.07894137 0.34098577 -0.61994946 0.22734192 0.37602013 -0.40023595 -0.009429531 -0.27922893 -0.27328312 -0.62540776 0.33828533 0.092021555 -0.1998494 -0.3526733 0.2617473 -0.10379299 0.14504954 0.4511286 -0.1995923 -0.29483813 0.05716387 -0.27297646 -0.0257136 -0.09036989 0.17108858 0.3064518 0.34129503 -0.17653461 0.051315244 -0.52436894 -0.025642864 -0.20717745 -0.084641404 0.2156395 0.048749294 0.06231714 -0.020074837 -0.32176873 -0.23826699 -0.34346706 -0.02445136 -0.5690548 -0.013539061 -0.050612163 0.06638366 0.085942 -0.27019432 -0.48182926 0.49700353 0.25810045 -0.1563118 0.13390024 -0.27829018 0.018891042 0.18842344 0.13159484 -0.043148693 -0.34463283 -0.32445005 -0.42368335 0.35410786 0.18510944 0.34118006 -0.04185089 -0.1903446 0.6794295 0.12861256 -0.6093958 -0.40510792 0.008869854 0.16605805 -0.15597558 0.23501225 0.14192265 -0.08657912 0.25582054 0.123048745 0.6818318 -0.010484084 0.2648031 0.057832688
CTA 0.026565237 0.08535037 0.15512468 0.3016777 -0.16877905 0.033529602 -0.15805648 -0.34007576 -0.28351548 -0.51928353 0.20383842 0.35470587 0.22477406 0.09280336 -0.089025974 -0.250436 0.3296905 -0.27312708 -0.10174376 0.3263901 0.21408159 -0.11505863 -0.35891855 -0.21062373 -0.52056175 0.37758693 -0.24174447 0.07930634 -0.1077602 -0.12318584 -0.17962395 0.3203802 -0.5702356 0.8437081 0.16190371 -0.077409856 0.4453912 -0.11711057 0.49219242 0.05705379 -0.0053700404 -0.08023332 -0.24878296 -0.14466076 0.32067543 0.0945162 -0.0089995125 -0.07624014 -0.69645643 0.43089023 -0.09657494 0.37228605 -0.118597284 -0.06329168 0.042588674 0.017832946 0.17726286 -0.02653203 -0.2159469 -0.6343259 0.08279219 -0.2480108 0.1853832 -0.096790545 -0.30641052 0.5369707 -0.7527797 -0.15377921 -0.5423745 -0.14121427 -0.18794946 -0.11018146 0.3085525 0.06652085 -0.28466517 -0.1232828 0.37461093 -0.22589432 -0.24014118 -0.08009214 -0.14102213 0.33976075 0.13382344 -0.12613004 0.22862971 -0.09182865 -0.05645477 -0.10727649 -0.20260137 -0.22686389 -0.20360492 0.09725281 -0.1891188 0.29491612 -0.28904822 -0.6171963 -0.23076774 0.1612416 0.15807502 -0.4761989
GCC -0.07241417 0.6686348 -0.04122249 0.1717064 -0.32995573 -0.15375535 0.36364374 0.14958304 0.062092934 0.25618163 -0.1875667 -0.13117297 -0.30612317 -0.086414866 0.13315047 0.4315529 0.07410609 -0.5595588 -0.5518523 0.45592514 0.10196649 -0.07355122 -0.22022693 0.07180831 -0.31924012 -0.18266568 0.11642923 -0.11012434 0.48382747 0.5559026 -0.0024549474 0.5441888 -0.41431603 0.75741625 0.42918214 0.12666024 -0.18606597 -0.115704484 0.32076597 -0.4358814 -0.1156465 -0.26006633 -0.4586074 0.4723712 0.6016631 -0.13364124 0.35039625 -0.14940766 0.20607975 -0.09158919 0.53172004 -0.3581748 0.23707236 0.42828202 0.010458093 -0.29399425 -0.20394813 0.05886142 0.18759347 -0.045983233 -0.19431663 -0.18910494 0.17379592 -0.45758894 0.17030369 0.07218703 0.0804384 0.10029887 -0.13991658 0.41012177 -0.34583092 0.70436245 -0.23343967 0.76697665 -0.13116291 0.06662754 0.17054848 0.61917335 -0.42443764 -0.34453738 0.29958764 0.082217626 -0.21457398 0.11400336 0.21480806 -0.14765702 -0.22159766 -0.30222797 -0.06366502 -0.23698096 -0.24149752 -0.0038595945 0.39811313 -0.25768593 -0.29102552 0.83863384 0.20477474 0.073775396 0.40501183 -0.16939856
GGC 0.30272964 -0.2805136 -0.16185862 0.08045138 -0.10332728 0.39586774 -0.17414081 0.3308118 0.037648674 -0.23906082 0.70187485 0.26440224 -0.46363348 0.59829265 0.24470083 0.34642994 0.32079127 -0.24957366 -0.4233443 0.08037065 0.34630418 0.059696555 0.2440997 -0.057233553 0.1815823 0.06590094 0.08537835 -0.35567927 0.317915 0.2516037 -0.22175193 -0.021252744 -0.09854042 0.33561054 0.79348695 0.23798406 0.070401825 0.22050935 0.12866949 -0.050250366 -0.19631378 0.63344944 -0.32499033 -0.35215345 0.49659675 -0.3377348 -0.32417145 -0.60728765 -0.4513701 -0.33442873 0.24060138 0.057926137 0.22029907 -0.239506 -0.39209002 0.034482706 0.04436254 -0.44095027 -0.2317545 0.30442253 -0.15525804 -0.0070992685 0.38126674 -0.28479883 -0.3994549 -0.090683274 0.008353828 0.21020187 0.2987342 0.21820784 0.44801733 0.18766022 0.3490664 0.34175643 -0.14376985 -0.2115829 -0.4882224 0.333894 -0.007209477 -0.26059335 -0.058569107 0.06716432 0.10165525 0.46443686 -0.01065009 -0.30246344 -0.11826679 -0.59837127 0.092936985 -0.35587192 -0.14148594 -0.07027235 0.16633339 0.8542989 -0.11315723 0.5039165 0.6844676 0.4584647 -0.37362686 -0.08255473
ACC -0.39776567 0.35702345 -0.3037122 -0.30252376 -0.37396765 0.46511847 0.18311013 0.3011265 0.36375368 -0.32103533 0.062448382 -0.02611742 -0.61966234 -0.089826524 -0.0196453 0.10394002 -0.16457121 -0.17577246 -0.66261655 0.40567553 0.5414965 0.007460832 0.04018263 0.19667588 0.015176142 -0.2770957 0.07111331 -0.13218606 0.01674585 0.08118638 -0.03828641 0.41780454 -0.5602105 0.32496768 -0.26557088 -0.14458308 -0.5783828 -0.24987729 -0.23818514 0.22442763 -0.24989714 -0.22085884 0.5468518 -0.13594623 0.5355565 -0.3043077 0.14960276 -0.24003832 -0.03845716 -0.3279829 0.5627915 0.14507888 0.22910635 0.34949842 0.1747589 -0.04281285 -0.8895239 0.28164065 -0.3738303 -0.095536955 0.23803066 -0.3029024 0.044668436 0.025636874 -0.21861893 -0.11336174 -0.10999425 -0.087332524 -0.4900859 0.18974505 0.0056310315 0.3086704 0.39704037 0.04845926 -0.21171677 0.58229184 0.09301114 0.30036557 0.08536795 -0.15904233 0.41306648 0.5819605 -0.3546513 0.01743291 -0.06740576 0.21966785 -0.22701219 0.02836506 0.16857548 -0.17568465 -0.5753731 -0.07027882 0.13877937 0.4719348 -0.59014374 -0.06279659 -0.096802 0.17540267 -0.06913368 -0.0135323275
GGT -0.4238804 -0.122655116 0.5757691 0.57949865 0.35633856 0.48364285 -0.0073356912 0.18263033 -0.50173396 0.44874838 0.3240114 0.15008461 0.046508018 -0.3441752 -0.3390928 0.19914135 0.14681411 -0.23247907 0.01706671 0.029071284 0.60610914 0.32643923 -0.2657969 0.5430971 -0.35535875 -0.2695239 0.7171385 -0.056571275 0.09714282 0.2790863 -0.4134788 0.097915806 0.1632534 0.5249786 -0.05899996 -0.027026957 -0.23663875 -0.49768355 -0.019186813 0.042787462 -0.13558134 -0.21333797 -0.3516815 -0.022882735 -0.19451702 -0.29222846 0.05899456 -0.10770538 -0.48452282 0.23288837 0.08750293 0.16441041 -0.23530403 -0.48149225 0.19015163 -0.23702054 -0.3523416 -0.2994202 -0.30178165 -0.009684431 -0.4087883 -0.4565232 -0.16692983 -0.11416416 0.25085163 0.01028033 0.26887125 -0.45616332 0.48638797 -0.09867435 0.3552412 0.18537518 -0.047730718 0.31963444 0.18888456 0.1429172 -0.3051132 0.11223048 -0.34731326 -0.0064046984 -0.025533438 0.43754053 0.1684505 -0.29984716 -0.22716747 -0.28558955 0.1296372 -0.22264749 -0.39903808 -0.32831174 -0.15642287 0.14459929 0.3398447 0.08484792 0.286338 0.06274861 0.1673756 0.08000863 -0.12770769 -0.22265616
GTA -0.47135016 -0.2672712 0.24691588 0.22794585 0.059080392 -0.15836345 -0.11953005 -0.18457589 0.262887 -0.18201692 -0.03720949 0.24334621 0.2806093 0.37842673 -0.08035765 0.22924119 0.4080625 0.040210493 -0.1605176 0.75466764 0.123612426 0.57132125 -0.5579692 0.22569719 0.13656233 0.47502306 -0.2806321 0.18430446 0.012781014 -0.038419515 -0.0076731206 0.3896603 -0.74473023 0.18922989 0.16361843 -0.35207215 0.17998813 -0.10636236 0.67121726 -0.32387954 -0.50415975 0.11512865 -0.0853824 0.08192208 0.13037239 -0.34074077 -0.4048218 -0.050622314 -0.09138308 -0.10664514 0.10335457 -0.2265463 -0.5145702 -0.6779356 -0.24560884 0.24614199 -0.13486888 -0.3986702 -0.13187842 -0.18835454 -0.06222215 -0.09118455 0.12875989 0.10524346 -0.19552237 0.23909053 -0.5557636 -0.0077628363 -0.27045864 -0.06698827 -0.35254136 0.1700631 -0.2001754 0.28640023 0.23163664 0.05290572 -0.08251068 -0.1610766 -0.09506298 0.1142598 -0.19264597 0.5647827 0.1224575 -0.40527087 0.47349846 0.55070686 -0.08629858 0.15332729 -0.43109167 0.09507754 -0.006404801 0.34119925 0.483751 0.20412794 0.120841816 0.22601691 0.01452866 0.07928427 -0.22922929 0.11317228
TAC -0.5650006 0.20218775 -0.39713222 0.1934198 -0.20243938 0.26965818 -0.20477432 -0.2525283 0.3246792 -0.04830756 0.12339602 -0.32300046 0.17548484 0.99558914 -0.04370169 -0.20012787 0.47810915 0.09775392 -0.2995823 0.119356684 0.12301272 0.23181647 -0.41590345 -0.5637982 -0.23805326 -0.18231209 -0.059327934 -0.21624306 -0.17402032 -0.14470313 0.06033695 0.25661558 -0.13194562 0.17811039 -0.16088526 0.2682644 0.039097235 -0.71856487 0.16710241 0.29448768 -0.47237867 0.09942762 -0.37186393 -0.10525288 0.27241582 0.2154853 -0.313286 -0.26162896 -0.6137791 -0.13258131 0.15550679 0.11164397 0.17571697 -0.16256444 0.11227828 -0.0984512 -0.3415754 -0.03933274 -0.012446939 0.07360498 0.058164738 0.04612169 0.022720994 -0.39770848 0.42391384 0.045555968 -0.017962083 0.0046021747 0.45232293 0.29407907 -0.10057931 -0.0494406 0.24454089 0.30371484 0.022238687 0.5375059 0.066177055 0.31828386 0.11001602 -0.06476434 0.7119573 -0.17048204 -0.73384 0.09098851 0.17940736 -0.35848063 -0.37760952 0.7495987 -0.39418578 0.6001388 -0.066776246 -0.034102857 0.23762271 -0.09065626 -0.4606325 -0.11924391 0.042694457 0.41383356 0.08796483 -0.23250513
GAC -0.08641464 0.06524535 0.036446627 -0.43293616 0.38258705 0.51460004 0.35225335 0.16915257 0.07262949 -0.2952239 0.25826073 0.4410556 -0.70436347 0.6928178 0.37227485 0.1818364 0.5269884 -0.07942769 -0.34001628 0.22840889 -0.1317622 0.20210513 -0.49044532 -0.12927966 -0.4848494 0.72684044 -0.09322593 0.0062204613 0.07999929 0.12353314 -0.0879229 0.37952676 -0.45827037 0.06852774 -0.027823085 0.014114107 -0.44378358 -0.3999681 0.21625395 0.021623842 -0.051997308 0.063000694 -0.3607424 0.21412963 -0.374609 -0.022830421 -0.39794636 -0.1306224 0.17360082 -0.037015125 0.32606742 -0.29319817 0.29749364 0.4912401 0.25388244 -0.60437226 -0.39728492 -0.40763047 -0.43378377 0.36560953 -0.19852774 0.15227714 0.15792492 -0.35533434 -0.03275768 0.079346314 0.21733157 -0.068026334 0.25136697 -0.19257031 -0.3713814 0.12244633 -0.07987238 0.63606477 0.23616287 -0.11703269 0.2356024 0.3401619 -0.42558178 -0.1469083 0.6718575 -0.14969012 -0.58933717 0.036632206 -0.023278806 -0.0022174628 0.15175554 -0.11246031 -0.281024 -0.2819506 -0.42286193 -0.465483 0.26982948 0.041574836 -0.028928395 -0.23361203 -0.034441818 0.7207782 0.07222427 -0.42252773
GTC -0.3761936 0.44354233 0.08614385 -0.13165854 0.13601416 0.119187176 -0.04656524 0.9245766 0.36008763 -0.2532699 0.017626422 -0.0368284 0.8940042 0.20575967 0.3277682 0.5539964 0.38654402 -0.47079083 -0.28824136 0.048249677 0.15279292 0.52179825 0.6349271 -0.35650045 -0.22063562 -0.18948527 0.67321986 -0.26755732 0.06516395 0.31480038 0.10007396 -0.07738657 -0.7578192 0.30477846 0.21122941 -0.1626326 0.01344703 -0.5134458 -0.15573417 -0.23893487 -0.08931764 0.19301495 0.04445711 0.48928213 0.009849996 -0.21658154 -0.20599146 -0.27950114 0.6558711 -0.3190867 0.6592585 0.025797188 0.15596691 0.036914553 0.16105029 -0.13901834 0.22592083 -0.43900344 -0.07564338 -0.41841692 0.22322167 0.2090885 0.16478956 0.20461354 0.140318 0.655431 7.4356205e-05 0.042613678 0.099376276 -0.25117514 -0.39936084 0.10664583 -0.1513039 0.20013633 0.19537577 -0.21289848 0.0867709 0.0010342089 0.058754142 -0.53590727 0.08721095 0.2852273 0.0012557966 0.048241746 0.17200316 -0.26141977 -0.13816237 0.18913986 -0.53836876 -0.2928381 -0.31945753 0.14017713 0.27865922 0.5412299 -0.04052675 0.32823405 0.42167297 -0.021279946 -0.15236336 -0.07436252
AAAT -0.39081293 -0.7201092 -0.030933881 0.2823758 -0.26864967 0.5073571 1.0461541 -0.30036765 0.4713371 0.22935452 0.33987015 -0.046524815 0.30976176 -0.053854562 -0.31547529 0.07584688 0.39776093 -0.43057153 -0.2303986 0.18269959 -0.16263594 -0.19729377 0.3043465 0.119750924 -0.5194343 -0.2694875 0.22085679 0.5322002 -0.23293965 0.20541629 -0.4294936 -0.0077211563 0.0027650883 0.12743674 0.44355652 -0.30815795 0.35255492 -0.3436848 0.018296866 -0.15614101 0.55015826 -0.10578811 0.12856165 0.037001226 -0.4132619 -0.21767764 -0.14182395 -0.77694255 -0.57146996 0.15074325 -0.18525948 -0.5809322 0.35087666 -0.75351626 -0.03507339 -0.050476965 -0.05762727 0.16704352 -0.6177077 0.114933416 0.075392894 -0.047754154 0.15252753 -0.40334028 -0.6254206 0.14182957 -0.020164344 -0.23694824 -0.20673464 -0.08483468 -0.23829721 -0.58371866 -0.44727018 0.3780741 -0.012094783 -0.07643097 0.19437218 -0.06308215 0.21038012 0.45756477 0.13792259 0.48907405 -0.46654737 -0.09408148 -0.14473075 0.22585087 -0.61825216 -0.098883964 -0.1359521 0.17913538 -0.2974771 0.12791108 0.07709649 0.4357808 -0.6342372 -0.06224774 0.23524703 -0.67346 -0.41334307 0.11590443
ATTT 0.20619564 -0.20164965 -0.20249712 0.37105197 0.0724052 0.71840495 0.7155383 -0.015851043 -0.18488882 0.18727367 -0.3435608 -0.48772573 0.30025262 0.13975535 -0.5477802 0.680722 0.10313614 0.09958155 0.201557 0.12184573 0.1536078 -0.0346136 0.03721365 0.10311818 -0.59359133 0.30329642 0.47230253 -0.5855865 -0.013615903 -0.068903744 -0.14021553 0.13934654 -0.052554015 0.62176305 0.5760418 -0.2559784 -0.13680908 0.07390307 -0.094576865 -0.10468804 -0.52601063 -0.33299205 0.37785557 0.13726337 -0.15998623 -0.21531492 0.0736186 -0.017504552 -0.54551834 -0.1759274 -0.1901236 0.05972447 0.4789908 -0.15784079 -0.012601533 0.73721844 -0.11998888 -0.2974159 -0.0142892245 0.3545473 -0.015737802 -0.15371352 -0.23011597 0.43235576 0.025336491 0.12910376 -0.7809189 0.12285666 0.17270517 -0.21624434 0.36159104 -0.37187687 -0.1348649 -0.11066023 -0.28022814 -0.01709187 -0.23814997 0.3508628 -0.072882496 0.088329926 0.49790397 -0.21432158 -0.6841157 0.28347903 -0.14020976 0.30890033 -0.5682497 0.19660558 0.08239461 -0.33420557 -0.019824794 0.48227096 0.9942692 0.12976521 -0.16529141 -0.4288534 -0.204933 0.14779115 -0.118134715 0.076702386
TTTA -0.6143756 0.07759563 0.060832754 0.6993691 -0.37245232 0.9305096 -0.09917173 -0.17808707 -0.24983956 -0.30373466 -0.18656789 0.071206555 -0.07899594 0.17562549 -0.61974573 0.26965296 -0.21098392 0.2656126 -0.1132849 -0.046755243 0.4979036 -0.11532983 0.26385498 -0.18605988 -0.5070617 0.66187483 0.21388328 0.34647486 -0.31562936 -0.05234771 -0.429779 0.49864918 -0.13791764 -0.18385199 -0.14533225 0.113014646 0.084589675 -0.2334145 0.23499233 -0.13540283 -0.8999738 0.36900595 -0.63755405 0.06782576 0.16203035 0.16323482 0.26273173 -0.34396735 -0.24232092 0.0733045 0.056280203 -0.07553617 -0.12507847 -0.51989865 0.33995768 0.19298582 0.5404543 -0.5104652 -0.33121002 -0.7950086 0.3216132 0.27245358 -0.0472364 0.3007513 -0.28770885 0.52798605 -0.40746954 -0.23884228 -0.13409007 0.62810093 -0.21975265 -0.07774039 -0.101964355 0.51558214 0.019460365 0.07483292 -0.19016598 0.012537057 -0.584801 0.2788775 0.2130066 0.27655992 -0.33762702 -0.03683999 0.27823552 0.92008805 0.051885262 0.3023046 0.3835955 0.1574868 0.18676943 0.7223812 -0.30781063 -0.014741673 -0.18654604 -0.18594922 0.4231813 -0.0959143 0.56934893 -0.0914863
TAAA -0.19301428 0.236732 -0.47552073 0.28954986 -0.02050276 0.22351184 0.45814675 -0.4628634 0.6262866 -0.041184183 0.029941594 -0.13977472 -0.006801916 -0.03138954 -0.32113642 0.3610262 0.675457 0.39309296 -0.37235683 -0.24828675 0.36662826 -0.17106083 -0.029339852 -0.20005445 -0.42955777 0.065631956 -0.3477705 -0.1028219 -0.09320675 0.25474727 -0.08096772 0.56608206 -0.416696 0.46505487 -0.5953209 -0.18276773 0.35652035 -0.013233067 -0.3005185 -0.23858304 -0.11181569 0.47241336 -0.64205164 -0.10365756 -0.4528503 -0.4456967 -0.5441494 -0.10788589 0.011803304 0.2332219 -0.31252152 0.018844478 -0.15528998 -0.3684373 -0.1880629 0.15627451 -0.054429222 -0.034882452 -0.26129213 -0.2162425 -0.35541937 0.0017216828 0.9465395 0.21433054 0.21235837 -0.09941044 -0.6311622 -0.43314996 0.037626028 0.17231087 0.133467 -0.40761876 0.5994724 0.39656338 0.15121688 0.1497804 -0.5802147 -0.30751032 -0.24815392 -0.19790582 -0.17336793 -0.10094408 -0.79477495 -0.39592606 0.22113818 0.009649681 -0.10622731 0.42489842 0.07224374 0.08005762 -0.49870583 0.37927702 -0.34846002 0.1369414 -0.15554665 0.11923258 -0.13418138 -0.29286718 0.5438556 0.03761331
TTCT -0.104991935 -0.07034951 0.7223807 -0.297446 0.3855685 0.26110053 -0.098034695 0.08534618 0.52215755 -9.6345146e-05 -0.3625344 -0.20523399 0.4834607 0.36160505 -0.27202788 0.5850122 0.306993 -0.3633492 0.29527646 0.1022357 0.61170936 -0.0009903308 -0.040859554 -0.19801445 -0.6519055 -0.0955578 0.2534892 -0.37235036 0.020015428 0.18831518 0.1894951 0.7730843 0.407001 0.08145818 0.3895702 0.51567006 -0.20558311 -0.7358019 0.5671103 -0.44422147 -0.21667786 0.045455683 0.20665503 0.015260252 0.58082414 -0.35078803 0.12712522 -0.48478118 0.09530294 -0.05250926 0.049681593 0.4952676 0.9582092 -0.17792009 -0.24728316 -0.046608713 -0.20908998 -0.15654953 -0.471155 -0.16224402 -0.05763873 -0.14645503 -0.33478707 0.20771109 -0.1798324 0.3274781 0.093534574 -0.36065012 -0.031153709 0.16915517 -0.5110219 -0.58147025 0.17729753 0.14442478 -0.41019386 0.12938993 -0.12416169 -0.27237767 -0.15519422 -0.17591923 0.13622399 -0.2851233 -0.13325644 0.105749115 0.11100274 0.2720505 -0.28872928 -0.09367291 -0.17169866 -0.0035209376 0.1802284 0.63761455 -0.34574077 0.30350232 0.2798184 0.039363693 -0.09619681 0.37918192 0.4506377 -0.06955633
AGAA -0.08270002 0.5719366 -0.355215 0.011684012 0.3435133 -0.00986262 0.3354727 0.37815157 0.6941935 0.48409387 0.023789143 -0.22329485 0.07951781 0.12721811 0.19780375 -0.69315565 0.023466801 0.37089396 0.4045978 0.29439563 -0.30860066 0.12219054 -0.017245801 -0.05313819 -0.6251154 0.052869063 0.13817868 -0.5831602 0.30505654 0.24033797 -0.4220388 0.2760587 0.48988208 0.3325193 -0.26441175 -0.10784739 -0.054275323 -0.1720893 0.15602857 -0.3424806 0.3449248 0.022342283 -0.58559746 -0.2607106 -0.10131413 -0.36438242 -0.6371271 -0.042098735 -0.16645569 -0.21520054 -0.35262707 0.22654894 -0.30136603 -0.24196188 -0.0029100298 -0.36771047 -0.4452723 -0.22533694 -0.7585402 -0.43440777 0.4849128 0.1892672 0.5479895 -0.5468257 -0.36660847 0.07540814 -0.5570688 0.3535808 -0.4850899 -0.26929742 0.29310527 0.04546989 -0.4244391 0.9297762 0.26006204 0.13295633 0.08580357 -0.19232476 0.10603467 0.01738318 -0.31055188 0.30602536 -0.3405497 -0.11165238 0.12191812 0.3519042 -0.32277185 -0.12491541 0.76063216 -0.045073356 -0.026988769 0.22266454 0.042844936 0.43824467 -0.42719543 -0.06838686 0.104703784 0.034051515 0.014969889 -0.030851765
GAAA -0.2333631 0.27970132 -0.34433618 0.29660138 0.3235511 0.20090199 0.31103078 0.1719946 0.6402256 0.12107112 0.31386712 0.12924016 -0.0908795 0.4431856 0.08767056 0.027006978 0.28357965 0.14548132 -0.24910456 0.3637858 -0.13562542 0.019337364 0.48095632 0.1567932 -0.51834065 0.52179253 -0.054332577 -0.0992469 0.50160074 -0.60324514 -0.17671223 0.67165256 -0.2482068 0.2699788 -0.21531181 -0.054078605 0.2168752 0.24006891 0.012071298 -0.1901915 0.3207965 0.23567326 -0.3130073 -0.10628371 -0.6036213 -0.9364414 -0.27916655 -0.19000234 -0.33147585 0.41521347 0.26112142 -0.12720849 0.46733657 -0.21051154 0.19894412 -0.083155036 -0.29964775 -0.47967836 -0.20866945 0.37559873 0.16884887 -0.2758972 0.5412453 -0.06496744 -0.2006269 0.6200075 0.14191696 0.197869 -0.66776735 -0.02898859 -0.29601526 0.117268674 -0.14033757 0.31376773 0.27732098 0.07452866 -0.20445502 -0.71376055 -0.548738 0.11561369 -0.41302332 0.6383866 -0.41407943 -0.19898587 -0.40198314 -0.05405291 -0.2689668 0.388555 0.17731766 0.3870984 -0.20480902 0.11446631 0.13318993 0.0574084 0.35844016 0.13518979 -0.07216798 0.45714536 0.008951883 0.12857471
TTTC 0.15576127 0.2890319 0.7594703 0.10103783 -0.014774918 0.45334163 0.6877984 0.1580581 0.5862498 -0.14866976 -0.15301569 -0.2592837 0.3584671 0.8206332 -0.40233707 0.5208639 -0.37737888 -0.40473145 -0.009206753 -0.4814457 0.14163561 -0.5857221 0.48698473 -0.20882095 0.1109079 0.16339903 0.5568207 -0.54787636 0.0034736793 0.14573763 0.19009644 0.22413525 -0.11929392 0.52365345 -0.20287748 0.036449507 -0.4639667 -0.6277151 0.43491173 -0.25451675 -0.14659454 0.7399782 0.14926487 -0.06514413 0.42653462 -0.2452795 -0.24548699 0.39000458 -0.14304034 -0.42154267 0.1355322 0.32150486 -0.022466319 -0.5229964 0.21194445 -0.13874595 0.01880352 0.0714443 -0.57436866 -0.16285901 -0.15068941 -0.060229074 -0.5865632 -0.22400264 -0.008070162 0.13177875 -0.15563565 -0.09415766 0.18772689 0.4720624 -0.19332325 -0.13313328 0.20635095 -0.04027734 -0.6446511 -0.12710916 0.31994158 0.21393916 -0.25591162 -0.30105162 0.48844978 0.6225447 -0.5008774 0.33291703 0.33249676 0.2684772 -0.36472428 0.3906951 -0.25630194 -0.7098382 0.36774325 0.20132187 -0.08086151 -0.12738498 0.5344985 -0.42310488 0.15229791 -0.24505886 -0.108384565 -0.5805035
CTTT 0.3857594 0.23046286 0.024241311 0.33749792 -0.23857203 0.4672875 0.034274273 0.2458823 -0.082147054 -0.21621913 -0.15273947 0.11392121 0.10177686 -0.003605172 -0.30468225 0.048594844 -0.3050932 0.091010526 -0.30904958 -0.30423477 -0.03973322 0.36566892 -0.13300106 0.38157278 -0.6501173 0.18697608 0.47458357 -0.028980402 0.38144174 0.13087873 -0.13600245 0.10415014 0.0879693 0.0974851 -0.34042257 -0.11457706 0.103394836 -0.44160655 0.09111486 -0.7716104 -0.5905286 -0.033533208 0.16926457 -0.26371402 0.44392 -0.14557438 -0.18582365 -0.65791816 -0.56135565 -0.0030549497 -0.12213453 0.19300298 0.45053023 0.29954952 -0.4585476 0.19530979 0.29724208 -0.17811358 -0.043749385 0.034782995 -0.31014663 -0.29631212 0.52548623 0.23089248 0.30992267 0.13776198 -0.34706914 -0.6271364 0.012314286 -0.28560245 -0.14880602 -0.59337544 -0.080585696 0.011058439 0.11006243 -0.06144501 0.4983122 0.3483223 -0.6687723 0.20508403 -0.15621562 0.50968134 0.1562557 1.0555277 0.09483621 0.37379435 -0.3796226 -0.011734299 -0.89352643 -0.0426454 0.07288936 0.21138038 0.22913915 0.054160528 -0.43685928 -0.840662 -0.093270235 0.0017918213 0.1699092 0.28699917
AAAG 0.25370413 0.14895709 -0.35416916 -0.3634843 -0.1399822 -0.47317636 0.32633758 -0.1995664 -0.35578164 0.44754773 -0.4555023 0.22005893 -0.35149118 0.30188712 -0.25024804 -0.056591988 -0.28797218 0.6277167 -0.30218127 0.043230407 0.17927772 -0.071988024 0.08404938 0.467233 -0.097830765 -0.41466165 0.008362545 -0.46680158 -0.25964627 0.115007505 -0.07096707 0.39862463 0.12962732 0.56885463 -0.012757978 0.23610371 0.09051179 0.20919888 -0.21035545 0.25397807 -0.105903625 0.6540173 -0.5079679 0.28766143 -0.19253601 0.24888322 -0.88320893 -0.54537594 0.049386397 0.3816148 0.12620269 0.18374287 0.38553408 -0.5095801 0.61326253 -0.03011768 -0.13549657 0.3422112 -0.47641277 0.25254622 -0.1368831 -0.3749241 -0.2009764 0.1085779 -0.08351755 0.5165261 -0.5463359 0.2565029 0.3590449 -0.28306034 -0.06376503 -0.209427 -0.0097260885 0.6313816 -0.36519846 -0.45651484 -0.3605139 -0.3433141 -0.3726131 -0.39492375 0.25201318 0.58796316 0.5000487 -0.47372547 0.06209816 0.26122928 -0.3658595 -0.36090276 -0.19893457 0.69869435 -1.1827472 0.22880591 0.27713594 0.69510823 -0.22815697 -0.0041691884 0.051241297 -0.412154 0.31856346 0.309692
CAAA -0.21162722 0.16271377 -0.37628275 0.7381332 -0.29985252 0.22342692 0.93005264 -0.44729596 0.56403965 0.006296767 -0.44421068 0.5437954 -0.2906118 0.23571695 0.15981366 -0.38126206 0.2195032 0.23811956 -0.32705855 -0.15664421 -0.014987996 -0.14928068 0.13257058 -0.17816724 -0.27585214 -0.73633134 0.14268087 0.22058232 0.35402405 -0.16029418 -0.54498804 0.28594616 -0.25606385 0.1755282 0.07574585 0.42278382 0.03949634 -0.29476604 -0.32920265 0.075791426 -0.10196979 0.2295096 -0.49566823 0.436621 -0.29426822 -0.7830543 -0.3803595 0.32917905 0.14836147 0.24050514 -0.1791141 -0.10832272 -0.13437262 0.10686954 0.268099 0.30948246 0.3001301 0.03128724 -0.08088923 -0.076883055 -0.40921554 -0.39465696 -0.5019312 0.05637629 -0.36067945 -0.13967887 -0.34095886 0.24980633 -0.63714993 -0.15306714 -0.05611924 -0.2103498 0.1910715 0.47282806 0.14389287 -0.078457296 0.27777752 -0.390798 -0.41247892 -0.28346193 -0.5576199 0.4439168 -0.38944638 0.20379353 0.03655088 0.02812986 -0.16411278 0.10318089 -0.010518518 0.19570974 -0.69455475 0.68306726 -0.15762208 0.7933516 -0.18343154 -0.32693487 -0.19222294 0.17902716 -0.35603407 -0.638643
AATT 0.12032126 -0.38218743 0.74016047 0.06517077 -0.26488036 0.16955517 0.72725755 -0.1345334 0.73388785 0.02021909 -0.027723547 -0.3506435 0.53267044 -0.019013597 -0.36142012 -0.12963001 -0.13019828 0.7732882 -0.062160246 0.45778522 0.106939085 0.26125345 0.22201161 0.55839366 -0.050657284 -0.012827269 0.9589293 0.31253248 -0.113046475 -0.4166037 -0.2652107 0.61303824 0.027930522 0.73896134 0.32186162 0.1845943 0.12703142 -0.02771196 0.30650187 -0.08601188 0.31425074 -0.16915575 0.12120465 0.06248855 -0.4971722 -0.5387327 -0.1628691 -0.09135305 -0.30888373 0.11790799 -0.010729294 0.00037460204 0.54209906 -0.11652017 -0.23756 -0.058037072 -0.31052715 -0.28109163 0.14037886 -0.56309456 0.29107684 -0.62668246 -0.23047547 -0.09588349 -0.7750913 0.022389196 -0.39952403 0.038673468 0.11029348 -0.13449077 0.016097616 -0.4189156 0.26950982 0.2659022 -0.2768518 -0.08235803 -0.2508573 0.48289213 0.106697515 0.7914826 0.4771826 -0.5176837 -0.28990504 0.65237975 0.6876426 0.20059752 -0.24900699 0.43880266 0.0937386 -0.14095865 -0.7098366 0.07000755 0.34173018 -0.119135365 -0.40302894 -0.46687296 0.28112036 -0.27760103 0.4684497 0.3519762
TTTG 0.35687578 0.16785935 0.58459383 -0.100534976 0.19653402 0.62291497 0.09615078 -0.2910488 -0.13788481 0.57907593 -0.35776973 -0.7527518 -0.23545976 0.021302894 -0.036260694 0.108704224 0.52371603 0.32403147 0.0041164337 -0.7263348 0.59311366 0.65629995 0.32951486 0.162656 -0.31585494 0.24513486 0.33914095 -0.090836115 0.17810929 -0.43195668 0.13851796 -0.17799346 -0.6900002 0.10795839 0.06963056 -0.1839998 -0.21683767 0.48999766 0.36714354 -0.35977364 -0.4036256 0.2495393 -0.91513246 0.271613 0.26559392 -0.34692594 -0.04764547 -0.48495597 -0.26071423 0.51475996 -0.05864297 0.041839715 0.19603032 0.53323144 -0.22387357 -0.04497664 0.0139819775 0.2507955 -0.51131874 0.23623192 -0.38055724 -0.734021 -0.33684555 0.57326925 -0.082942426 -0.05081979 0.17023428 -0.3195108 0.12193468 -0.2398223 -0.2180039 -0.8237176 -0.24340945 -0.20598336 -0.03413999 0.47356603 -0.38079706 0.10630053 0.17845573 0.01578495 0.18439764 0.9006626 -0.6583526 0.2164312 0.17944214 0.4941268 -0.45235288 -0.28905973 0.20906234 -0.17086042 0.5992145 -0.06336396 0.24236685 0.09749775 -0.16579087 0.02264877 0.72336876 -0.179641 0.33714047 -0.090134926
AATA -0.590649 -0.23799141 0.14585446 -0.0981188 0.0068071885 0.06920183 -0.020411586 -0.17632471 0.7094443 -0.3600567 -0.2212928 0.037547316 -0.19531831 -0.10833033 -0.2272148 -0.06181327 -0.052814953 0.3649364 -0.31201926 0.22984447 0.13933815 -0.46550897 -0.3147448 -0.1380467 -0.265182 -0.09951321 0.14469159 0.20020781 -0.13633814 -0.648321 -0.5354762 0.23325297 -0.21960504 1.0374066 0.24770172 -0.30578256 -0.35776022 -0.45084423 0.18891333 -0.37646028 -0.16984853 -0.2695564 -0.47464445 -0.1188937 -0.5979061 -0.0452917 -0.57044303 -0.46084738 -0.5829097 0.19089966 -0.1570828 -0.7412124 -0.09778127 -0.19677745 0.013973486 0.21876195 -0.29336986 0.08462184 -0.05456147 0.048138045 0.7066441 0.029088497 -0.256746 -0.14070246 -0.58701146 0.0021103087 -0.5437602 -0.09212664 0.1578364 -0.1963922 -0.6014091 0.17421632 0.37731186 0.8911691 0.18244664 -0.22180802 0.009871796 -0.2763295 -0.09350354 0.10565086 -0.065747045 0.12401894 -0.051055886 -0.14422064 -0.30641428 0.19777091 -0.15674366 0.13779733 -0.018349532 8.941069e-05 -0.2127313 0.052902523 0.53898877 0.28082 -0.4171261 -0.4583431 0.23961563 -0.3486647 0.6019097 0.08685722
TATT -0.21108218 -0.22642612 0.22639723 0.7462427 -0.14393541 0.629392 -0.07235892 -0.229251 0.20084514 -0.10698676 0.22827733 -0.7106983 0.777723 0.2235334 -0.6118398 0.024964614 0.27283305 0.5632051 -0.050469045 0.10230533 0.07528386 0.1335685 -0.18429597 -0.105471216 0.50058055 0.3298469 0.41224724 -0.3499762 -0.4081562 0.090210706 0.13566652 0.55086917 0.11478237 0.5851685 0.11793425 -0.25025028 -0.5349514 -0.3747138 0.36693773 -0.5237138 -0.0906601 -0.38382736 0.12454264 0.8593529 -0.21567582 -0.5027974 -0.2784061 -0.4786276 -0.02220434 0.2457416 -0.42611942 -0.08812941 0.34079847 -0.02098607 -0.30096048 -0.12990853 -0.19526383 0.028691668 -0.26338288 -0.6531242 -0.40287232 0.11245458 -0.2733609 -0.09454596 0.21778408 0.4548373 -0.36020237 0.18797357 0.086353146 -0.08991145 0.36032435 -0.5403709 0.009511602 -0.2570106 -0.2648681 0.09294229 -0.05454448 0.1613381 -0.22105837 0.2995725 0.12638599 0.27336392 -0.45928222 0.66218704 0.32284033 -0.3738079 -0.78479004 0.26296332 0.05945225 -0.032963403 -0.41384217 0.3588303 -0.29184848 -0.029005159 -0.1657186 -0.14681578 0.28797993 0.18485144 0.20483284 0.51448756
AAGA 0.13019349 -0.2863898 -0.00040929252 0.35404155 -0.25779364 0.088250875 0.52711165 -0.52438146 0.41544548 0.27840066 -0.15488522 0.22030853 -0.012228907 -0.08987018 -0.11237782 -0.7616949 0.07693984 0.25494668 -0.28290808 -0.4688897 0.59339136 0.050049406 0.5154049 0.40896955 -0.15519923 -0.05814536 -0.14315031 -0.4404265 -0.20031892 -0.44243044 -0.48362908 0.4837426 0.23975359 0.69791806 -0.1495031 -0.003543953 -0.25479656 0.29498756 -0.113294 0.0246805 0.0654008 0.0621318 -0.158149 0.3459172 0.105469845 0.23269579 -0.4582729 -0.11216116 -0.11500078 -0.19819959 0.009467067 -0.57842743 -0.066566505 -0.07888432 -0.20033804 -0.12123636 -0.40888265 -0.2978391 -0.18903783 -0.04813 0.6401652 -0.09454582 0.54046685 0.13147905 0.36868036 -0.14242092 -0.080657944 0.27467296 -0.07905929 -0.2805495 -0.5570787 -0.29203123 -0.5535318 0.65085745 0.19023621 -0.63186735 -0.18011653 -0.37779665 -0.230791 -0.28337085 0.49354082 0.27230525 -0.54590684 -0.8935062 0.49043632 0.5169572 -0.25357655 -0.3448787 -0.040070735 0.29763034 -0.17438501 -0.3219523 0.30841863 0.5732854 -0.22002178 -0.3722123 0.022442421 0.08334756 0.14655715 -0.114925295
TCTT 0.21055724 0.27614465 0.5408654 0.26045072 0.13023284 0.6994114 -0.013024937 -0.028564995 0.07921626 0.26081824 -0.068765566 0.21764581 0.41377816 -0.19286366 -0.33018228 0.69423336 -0.12317325 0.29752386 -0.52778864 -0.32474107 0.21586478 0.3809627 0.15816219 -0.3840276 -0.02176673 0.2608191 0.8283696 -0.40076306 0.59310377 -0.05979727 0.056393903 0.052381873 0.1945933 0.31202534 -0.7511675 0.21925758 -0.34884936 -0.26376405 0.4083458 -0.5439062 0.14613909 -0.42352086 -0.111887954 0.37165457 -0.30418363 -0.22948012 -0.41765946 -0.53753084 -0.4466612 0.496815 -0.0069728117 0.14630166 0.24481747 0.18814082 0.23006907 0.54400766 0.095343344 -0.01702806 -0.38348705 -0.5747221 -0.06602798 0.2521487 -0.13964047 -0.36026374 0.30706406 0.028580384 -0.47492284 -0.7514676 -0.14514755 0.35718572 0.107017085 -0.19882247 -0.35240808 -0.17287497 0.1617168 -0.15863481 0.15522973 0.18912268 0.44368866 -0.088471256 0.5943589 -0.098725006 0.26775357 0.35153672 0.28647438 0.14388664 -0.6456095 -0.011589846 -0.4061582 0.16337582 0.67887235 0.6278076 -0.116750106 0.95144045 -0.13929681 0.14759581 -0.021072075 0.82024777 0.34847638 0.19312376
AAAAA -0.11596867 -0.12681264 -0.62474257 0.07286499 -0.27955863 0.43437707 0.7255321 -0.10259923 0.8866341 0.343042 -0.57655704 0.33060145 -0.333407 0.07389637 -0.15841196 -0.042679336 0.01619537 0.26732254 -0.29874387 0.05833138 0.13607901 -0.24758269 0.31313023 -0.09997388 -0.47557 -0.021553261 0.14944883 0.30591297 -0.14371426 -0.342965 -0.29230767 0.84497166 0.10513274 0.5423267 -0.14303169 -0.03536671 0.2189512 -0.007704682 0.17694838 -0.050973646 0.21707381 0.2722944 -0.48436773 -0.31931448 -0.4603893 -0.5037045 -0.61904794 -0.32312453 -0.1196633 -0.00022907888 0.102271445 -0.16838041 0.2405621 -0.41825634 0.015831357 0.0635376 -0.024097983 -0.22266336 -0.5148401 -0.1625702 -0.04025014 -0.13517885 0.16276924 -0.18832773 0.019485945 0.3870058 -0.18930787 -0.17757663 -0.21810576 -0.196396 -0.047372375 -0.06932694 0.01419712 0.8120552 0.116410665 0.08022311 -0.12730896 -0.4762002 0.018488389 -0.059408106 -0.16352554 0.55393565 -0.5493807 -0.09289097 -0.07275265 0.01397612 -0.44653818 0.09723698 0.18870854 0.52085644 -0.86537045 0.46646628 0.027903026 0.6773635 -0.49918294 0.059661888 -0.24717171 -0.5057036 -0.015741523 -0.13757117
TTTTT 0.06284127 0.12247053 0.4846907 0.27045995 -0.17900175 0.78859174 0.08872199 0.028468084 -0.062990226 0.04560619 -0.66617197 -0.52945244 0.030038454 0.46282852 -0.46111965 0.4465403 -0.10469121 0.3271922 0.1939032 -0.571937 0.19720633 0.22683036 -0.057689734 -0.06782667 -0.607804 0.61028564 0.5966163 -0.24581383 -0.0820832 0.23366211 -0.3311218 0.2604404 -0.0050700246 0.36716178 -0.08759062 0.018094584 -0.28892457 -0.22530884 0.27861515 -0.5319769 -0.5339764 0.2629148 -0.05866416 0.13321443 0.23512799 -0.4548898 -0.33996323 -0.6172333 -0.514561 -0.14050174 -0.143441 -0.006665381 0.7499919 -0.14647461 -0.033172507 0.09088414 0.18707825 -0.26011512 -0.39276633 0.08897911 -0.48420498 -0.13882048 0.03535839 0.065196104 0.261211 0.26544213 -0.6468321 -0.0543978 -0.06252977 0.044838026 -0.15861171 -0.5078582 0.045267045 -0.12262223 -0.27070975 0.14541446 -0.19697241 0.33006528 -0.048995692 0.19157489 0.29066986 0.32595778 -0.4736986 0.468305 0.15633924 0.42778346 -0.09680616 0.20536187 -0.096158974 -0.43342268 0.36660725 0.8276121 0.36590695 0.17739387 0.1525627 -0.046401076 0.3469933 -0.28264818 0.27287298 0.25232804
ATAT -0.30358386 -0.017541584 0.46051133 0.5995854 -0.1610719 0.7765892 0.22077687 -0.19181484 0.24107732 -0.24797176 0.23078054 -0.5820612 0.29538614 -0.16834863 -0.41410393 -0.0011958396 0.5230084 -0.39000186 -0.50450855 0.15405372 -0.2871664 -0.015316726 -0.36584285 -0.09343072 -0.036164086 0.094053075 0.019467963 0.3555965 -0.29710838 -0.25125957 -0.20699856 -0.37259892 0.14295934 0.5357536 0.45551893 -0.34771764 -0.12224738 -0.003056355 -0.09311315 -0.2665987 0.282715 -0.6379284 0.06454881 0.1985679 -0.3901673 -0.34769183 -0.22136468 -0.47471884 -0.30554357 -0.047363687 -0.009667099 -0.22917916 -0.058931567 -0.9077595 -0.051998325 0.3761632 -0.13663162 0.25019687 -0.64057094 0.09017863 0.28237003 0.009483523 -0.5393661 0.16349986 0.12129133 -0.04281338 -0.26976582 0.31835744 -0.43337494 -0.45128992 -0.08525397 -0.07585551 0.346126 0.17354394 -0.089324445 -0.068710044 -0.23816636 -0.0604358 -0.29518652 0.027925787 -0.024170218 -0.21726856 -0.8855977 0.24018519 0.5128248 0.3968956 -0.567373 0.35587567 0.21374089 -0.035377167 -0.30901846 0.045929067 0.5897904 0.07341702 -0.085520536 -0.30424413 0.14820957 0.073562995 0.6873253 0.06543284
ATAA -0.26362142 -0.031992864 -0.058039043 0.4166972 -0.039743774 -0.009721086 0.2172651 -0.3285775 0.5371502 0.04266156 0.27811578 0.0852342 -0.22356392 0.64221984 0.038405858 0.10286616 -0.27488762 -0.32462263 0.0031238396 0.549972 -0.157242 0.06829954 -0.50592643 0.25260526 -0.4801061 0.21354419 0.5662907 -0.1173477 -0.12469551 -0.3860545 -0.2543408 0.1467226 0.45396417 0.82062536 -0.20199347 0.11825458 -0.09860623 0.28673145 0.10962406 -0.18920474 -0.44824913 0.16068515 -0.26213253 0.3410199 -0.19128232 -0.121274054 -0.4017327 0.15854576 0.054998633 0.21931937 -0.042259153 -0.24562933 -0.46981147 -0.39713174 -0.538666 0.2624888 -0.24998629 -0.07424928 -0.40328625 0.23361643 0.22126123 0.58962405 -0.055565264 -0.113298565 0.10479539 0.525373 -0.52237976 -0.009145533 -0.62420183 -0.13577248 0.00015037863 -0.39310798 0.5884199 0.06781732 0.14662717 0.2757077 -0.7254661 -0.8478993 -0.746489 -0.24792138 0.311851 -0.038427893 -0.8654559 -0.0868764 0.11835662 0.5247063 -0.2969313 -0.20675056 0.15915927 0.13462731 -0.5234995 0.14049669 -0.19020143 0.39754626 -0.5367048 -0.033451714 0.31321797 -0.19736189 0.20483184 0.29115587
TTAT -0.33901674 0.5421512 0.7449029 0.31326044 -0.089820355 0.9626554 0.16329196 -0.113298185 -0.043367717 0.3743155 0.08640667 -0.44265926 0.43863368 0.3401738 -0.24975051 0.16694638 0.088754684 0.109921604 -1.1138026 0.15917124 0.633699 0.0744081 -0.42757615 -0.20432493 -0.3574639 0.4299518 0.033882286 0.04784282 -0.24041636 -0.24847908 -0.1711304 0.037294846 -0.28557977 -0.014533306 0.4186698 0.0593647 -0.44423118 -0.03094103 0.5832856 -0.55028445 -0.14938176 0.20941655 0.012658935 0.077409424 0.32449108 -0.14722003 -0.12504694 -0.15138245 -0.31503484 -0.038267747 -0.5647697 -0.17236623 0.048204344 -0.5135719 0.23982775 0.68282217 0.057524864 0.47556722 -0.40275013 0.020687642 -0.018179335 -0.11010523 0.07885446 -0.017517263 -0.07003967 0.029125454 -0.13941535 -0.47488937 0.1248831 -0.7200592 -0.21055101 -0.30239877 -0.037771042 0.29730788 0.14926672 -0.771676 0.35217816 -0.25488234 0.20736551 0.3339906 0.26607975 -0.047674265 -0.20916608 0.10319101 0.045051914 0.18957774 -0.3328957 0.427298 0.27172416 -0.11743902 -0.10212622 0.47741097 -0.26187858 -0.19630846 0.17741743 -0.260142 0.51793087 -0.20944105 0.41821823 0.10230297
TTAA -0.42346314 0.22528143 -0.023994738 -0.08757545 -0.34606186 0.47196448 -0.26142713 -0.83646643 -0.23937619 0.4112545 -0.2058765 0.45616618 0.49254572 0.86275244 -0.059012756 0.6087217 -0.40642324 0.37984052 -0.68438876 0.27294645 0.34962344 -0.24254 -0.35416722 -0.3020657 -0.56190854 0.09849262 0.2915127 -0.009525701 -0.18670344 -0.6421625 -0.46851486 0.60028476 -0.45913458 0.46525523 -0.80037904 -0.1698687 -0.33187824 0.091114774 0.10964175 -0.46651137 -0.46131998 0.3698105 0.04122245 0.29347056 0.2192991 -0.43085608 -0.34353998 -0.14582744 -0.07666686 0.042533614 -0.49980652 -0.0029360608 -0.23565987 -0.32145038 -0.47269675 0.34437948 0.30942592 0.043178562 -0.4297629 0.12498645 0.17342527 -0.19650075 0.47027028 -0.25492516 0.2226493 0.33846125 -0.29106835 0.09454348 -0.094535485 -0.039140128 -0.018874394 -0.6930854 0.0355979 0.25585577 -0.2227918 -0.18165581 -0.43950015 -0.08860119 -0.5386894 0.25206858 -0.38570762 0.21960914 -0.79789466 -0.6005549 -0.07108878 0.08431788 0.4587488 -0.019478625 0.08759588 -0.02322331 0.06958495 0.46650404 -0.70065063 0.24913612 -0.82046914 0.21767141 0.22902651 -0.2475882 -0.0074091326 -0.3306056
TTCA -0.15771098 -0.0462223 0.50322664 -0.2633961 -0.005009945 0.21868177 0.28694695 0.32408336 0.34770456 -0.19327307 -0.4183879 0.20633878 0.80871516 0.87840533 -0.60228556 -0.24487652 0.027939452 -0.031878855 -0.60117495 -0.38866478 -0.049186397 -0.44572577 -0.20144458 0.005556061 -0.38950962 -0.21011437 0.17299135 -0.6611379 0.28676075 0.054733247 0.011646171 0.32687426 -0.5396684 0.18510471 -0.08391123 -0.2026623 -0.42093387 -0.55498105 0.03347504 0.20538299 -0.27549905 0.508835 0.3714557 0.29543224 0.05625744 -0.3303324 -0.5366724 -0.09602812 -0.12863114 -0.25865078 -0.17583722 0.36117345 0.2471731 -0.25552756 -0.6007328 0.26472366 0.79736674 0.10152542 -0.0029829543 -0.13125649 -0.18797147 0.5186156 -0.26994064 -0.08225761 0.12192715 0.3924609 0.6275891 -0.37452218 -0.65509486 0.53206575 0.5470949 -0.06397913 -0.26342717 0.64309245 0.38401636 0.38420242 -0.16583844 0.22671232 -0.77763426 -0.1866057 0.37004954 -0.01885022 -0.064315364 -0.3447029 -0.36253455 0.5625928 0.18076244 0.23497364 0.35521254 -0.21130703 -0.2927252 -0.02230954 -0.4516551 0.09195027 -0.01328309 -0.034184556 0.91297156 0.20593093 0.4379784 -0.093875885
TGAA -0.20690382 0.25416094 -0.4348082 0.34550416 0.3410185 -0.038081743 -0.044649072 0.039953083 0.08090868 0.5129114 0.45900917 0.2811531 0.8162746 0.61789995 0.39513135 0.036929507 -0.44395715 0.61352617 -0.15532178 -0.037973113 0.66987574 0.044259433 0.2810607 -0.3801878 -0.18443705 0.3157611 0.27408385 -0.031660695 0.5360649 0.28304 -0.24048692 0.7090601 0.0744516 0.109071516 -0.06511498 -0.12590031 -0.1301105 -0.48218966 -0.362452 -0.4086506 0.20772532 0.15554594 -0.40297076 -0.0715835 0.01503841 -0.49089852 0.1760726 0.08356948 -0.63788253 0.39039052 -0.0773784 0.2292177 0.07317542 -0.47576424 -0.22156174 0.3753191 0.057407506 -0.23087333 -0.39685884 0.24202739 -0.09144222 0.43430406 -0.14143854 0.49035934 -0.55354464 0.09595526 -0.6225949 0.1939906 -0.037474133 -0.08248504 -0.80861807 0.29305747 -0.23821157 0.33623695 0.057536297 0.008875193 -0.17704159 -0.5908249 -0.020239351 -0.16450103 -0.4599304 0.5641168 -0.70352614 -0.12558043 0.16017844 0.27590057 -0.051049016 -0.06766395 0.51543343 -0.061751813 -0.40267593 -1.0611966 -0.12510006 -0.18079057 -0.35648805 0.1620006 -0.3555805 -0.047545638 0.74584377 -0.045346864
AACA -0.3258158 0.18322723 -0.4909053 -0.0031436386 -0.20588176 -0.10248841 -0.041169528 -0.1386304 -0.014545012 -0.05417755 -0.11100835 0.44041157 0.21743003 0.552672 0.07493188 -0.5357461 -0.17993428 -0.1307524 -0.34849384 -0.041841123 0.6930486 -0.20449805 -0.01607226 -0.47181213 0.1600503 0.15467837 0.6469899 -0.0795036 -0.4439881 0.09805924 -0.15067072 0.102395244 0.42411205 0.66241646 0.08188747 -0.5687302 0.1368057 0.5222908 -0.2764234 0.46106607 0.03636608 -0.24053325 -0.3717356 -0.12767032 -0.3036108 -0.6252352 -0.66587585 0.20867844 -0.39763558 -0.270287 0.34556454 -0.42322657 0.13579863 -0.36046565 0.11252859 -0.40549526 0.089503095 -0.06615857 0.020570341 0.8022498 -0.036383323 -0.2077563 0.46817926 -0.5886491 0.0036361837 0.3764654 0.1334521 -0.27801752 -0.037294697 0.10141556 -0.1331608 -0.23753501 0.03320757 0.74195755 0.1590127 0.31215876 0.48303005 0.0033252728 -0.074457906 -0.12511247 0.74662864 0.2137386 -0.43828776 -0.06656473 0.26207277 0.44983768 -0.2687248 0.232658 0.33163637 -0.3106835 -0.43642944 0.20138828 0.18208371 0.66832924 -0.36155173 -0.14783947 0.034307912 0.16961497 0.48262587 0.08666328
TGTT -0.50343007 0.031763524 0.6120324 0.49540386 0.28153372 0.60840744 0.1702004 -0.23913692 -0.058334492 0.6995387 0.2601232 0.02932758 0.28731108 0.21495974 -1.2348559 0.2662872 -0.20619868 -0.16939403 -0.374359 0.025861077 -0.073660396 -0.48878974 -0.41673043 0.17717145 -0.3306779 0.107198 0.388388 -0.028729662 0.53221315 0.27091727 -0.52529675 0.20064764 0.30982682 0.12317778 0.17293324 0.002300323 -0.50063986 0.1033227 0.2822466 -0.30533922 -0.503713 -0.07698603 -0.29627115 0.2824833 -0.19666995 -0.25980803 -0.22371987 -0.21951184 -0.29853538 0.25372097 0.05971081 0.43767184 0.29545838 0.47677198 0.19818471 0.48350766 0.0771095 -0.3328477 -0.31013265 -0.29817975 -0.50991553 -0.44730714 0.08801985 -0.004168633 -0.05471979 0.47102842 -0.2686287 0.07770405 0.0016748639 0.5975227 -0.41216758 -0.6191631 0.02796439 -0.11766316 0.4164509 -0.30069417 -0.10357019 -0.047513608 0.46409872 -0.16929197 0.23105375 0.25336805 -0.3745694 0.3219214 0.65781885 -0.2311653 -0.07345325 -0.076639265 -0.51877904 -0.32143602 -0.10053166 -0.0001128413 0.08589333 -0.3077667 0.6714568 0.33142352 -0.38744026 0.003087058 -0.040112175 0.7784955
CTCT 0.43294916 0.12288828 0.76175994 0.45387715 0.21498382 0.25891855 0.32386518 0.0031504598 0.046647143 -0.19774938 -0.44653893 -0.0045909663 0.37921065 0.026488198 0.18733107 0.40897003 0.38163546 0.07687917 -0.84826976 0.18942922 0.104905374 -0.0069126887 -0.23165731 0.2166037 -0.6129797 0.03569633 0.6302766 0.10994816 -0.0544064 0.33255085 0.556638 0.35328674 0.5229469 0.50961685 -0.23996456 -0.07215304 -0.022462914 -0.36337137 -0.2161513 -0.43427148 -0.21130095 0.11903056 0.28682584 -0.27329087 0.459802 -0.123409495 -0.121685684 -0.42624006 -0.11948714 0.51433223 0.5461667 0.5378089 0.77284575 0.29550716 0.24523121 -0.11681912 0.04716327 -0.30296156 -0.45282972 -0.43333763 0.2825865 0.0076784296 0.26437604 -0.02110472 -0.013478907 -0.0697467 -0.31600225 -0.12018559 0.43289316 0.11210161 -0.45364857 -0.05298984 0.40856662 -0.3366746 -0.26916412 0.086064555 0.23194863 0.28004384 -0.036795802 -0.24335246 -0.70043695 -0.033124894 0.20429759 0.45080715 0.024354747 -0.15895641 -0.46818772 -0.05066843 -0.45823 0.47507542 0.26424012 0.18299517 0.021538423 0.48409745 -0.060988523 -0.0936044 0.17933178 0.7412152 0.3013969 -0.49357593
AGAG -0.28481627 0.11896444 -0.04205265 0.30661452 0.5542964 -0.3370552 0.17181025 0.13633478 -0.16105314 -0.08642628 -0.3480719 0.1548523 0.12585743 -0.06783898 -0.30249405 -0.83307374 0.11319059 0.21874146 -0.08359665 0.27316874 -0.040130507 -0.06530579 0.18277667 0.9544509 -0.6146411 0.17451352 -0.12972644 -0.8250773 -0.48467696 0.23090746 0.097818635 -0.056727868 0.35731396 0.4849399 -0.353668 0.3508255 0.017950958 0.17951268 -0.30860466 -0.37029132 -0.17510276 0.23378521 -0.38530794 0.49151 -0.13677038 -0.4805667 -0.72480726 -0.18589039 -0.12310401 -0.15696703 -0.028311798 0.06430844 0.22925164 -0.28069246 0.2264661 -0.04743483 -0.3663423 -0.6464977 -0.055792663 0.3076465 0.19770414 0.18054655 0.2676177 -0.349977 0.3541497 0.20203078 -0.27937338 1.107027 -0.11525464 0.09313806 0.13995634 -0.011232661 0.069070056 0.95264024 -0.30389693 -0.35934263 8.7091736e-05 0.33655384 0.3362046 0.092212975 0.14435509 0.22948627 0.18810022 -0.27015653 0.2393032 0.17182949 -0.09949054 -0.57728326 0.022495905 0.3811041 -0.15713088 0.031688586 0.05938399 0.6463715 0.08192934 -0.19270597 0.23883754 0.25504547 0.01968802 -0.35520574
